<?xml version="1.0"?>
<MethodSetup Method="BDT::BDT">
  <GeneralInfo>
    <Info name="TMVA Release" value="4.2.0 [262656]"/>
    <Info name="ROOT Release" value="6.02/05 [393733]"/>
    <Info name="Creator" value="namin"/>
    <Info name="Date" value="Tue Jun 27 22:49:55 2017"/>
    <Info name="Host" value="Linux vocms029.cern.ch 2.6.32-504.12.2.el6.x86_64 #1 SMP Thu Mar 12 07:33:00 CET 2015 x86_64 x86_64 x86_64 GNU/Linux"/>
    <Info name="Dir" value="/home/users/namin/2017/fourtop/analysis/bdt"/>
    <Info name="Training events" value="118540"/>
    <Info name="TrainingTime" value="1.83300991e+02"/>
    <Info name="AnalysisType" value="Classification"/>
  </GeneralInfo>
  <Options>
    <Option name="V" modified="Yes">False</Option>
    <Option name="VerbosityLevel" modified="No">Default</Option>
    <Option name="VarTransform" modified="No">None</Option>
    <Option name="H" modified="Yes">False</Option>
    <Option name="CreateMVAPdfs" modified="No">False</Option>
    <Option name="IgnoreNegWeightsInTraining" modified="No">False</Option>
    <Option name="NTrees" modified="Yes">500</Option>
    <Option name="MaxDepth" modified="Yes">5</Option>
    <Option name="MinNodeSize" modified="No">0.1265403.2</Option>
    <Option name="nCuts" modified="Yes">20</Option>
    <Option name="BoostType" modified="Yes">AdaBoost</Option>
    <Option name="AdaBoostR2Loss" modified="No">quadratic</Option>
    <Option name="UseBaggedBoost" modified="No">False</Option>
    <Option name="Shrinkage" modified="No">1.000000e+00</Option>
    <Option name="AdaBoostBeta" modified="Yes">2.500000e-01</Option>
    <Option name="UseRandomisedTrees" modified="No">False</Option>
    <Option name="UseNvars" modified="No">5</Option>
    <Option name="UsePoissonNvars" modified="No">True</Option>
    <Option name="BaggedSampleFraction" modified="No">6.000000e-01</Option>
    <Option name="UseYesNoLeaf" modified="No">True</Option>
    <Option name="NegWeightTreatment" modified="No">inverseboostnegweights</Option>
    <Option name="Css" modified="No">1.000000e+00</Option>
    <Option name="Cts_sb" modified="No">1.000000e+00</Option>
    <Option name="Ctb_ss" modified="No">1.000000e+00</Option>
    <Option name="Cbb" modified="No">1.000000e+00</Option>
    <Option name="NodePurityLimit" modified="No">5.000000e-01</Option>
    <Option name="SeparationType" modified="Yes">giniindex</Option>
    <Option name="DoBoostMonitor" modified="No">False</Option>
    <Option name="UseFisherCuts" modified="No">False</Option>
    <Option name="MinLinCorrForFisher" modified="No">8.000000e-01</Option>
    <Option name="UseExclusiveVars" modified="No">False</Option>
    <Option name="DoPreselection" modified="No">False</Option>
    <Option name="SigToBkgFraction" modified="No">1.000000e+00</Option>
    <Option name="PruneMethod" modified="Yes">nopruning</Option>
    <Option name="PruneStrength" modified="No">0.000000e+00</Option>
    <Option name="PruningValFraction" modified="No">5.000000e-01</Option>
    <Option name="nEventsMin" modified="Yes">150</Option>
    <Option name="UseBaggedGrad" modified="No">False</Option>
    <Option name="GradBaggingFraction" modified="No">6.000000e-01</Option>
    <Option name="UseNTrainEvents" modified="No">0</Option>
    <Option name="NNodesMax" modified="No">0</Option>
  </Options>
  <Variables NVar="23">
    <Variable VarIndex="0" Expression="njets" Label="njets" Title="njets" Unit="" Internal="njets" Type="I" Min="2.00000000e+00" Max="1.30000000e+01"/>
    <Variable VarIndex="1" Expression="nbtags" Label="nbtags" Title="nbtags" Unit="" Internal="nbtags" Type="I" Min="1.00000000e+00" Max="7.00000000e+00"/>
    <Variable VarIndex="2" Expression="mt1" Label="mt1" Title="mt1" Unit="" Internal="mt1" Type="F" Min="1.23983924e-03" Max="1.55635840e+03"/>
    <Variable VarIndex="3" Expression="mt2" Label="mt2" Title="mt2" Unit="" Internal="mt2" Type="F" Min="9.25487257e-05" Max="8.42124573e+02"/>
    <Variable VarIndex="4" Expression="met" Label="met" Title="met" Unit="" Internal="met" Type="F" Min="5.00000381e+01" Max="1.61713416e+03"/>
    <Variable VarIndex="5" Expression="ml1l2" Label="ml1l2" Title="ml1l2" Unit="" Internal="ml1l2" Type="F" Min="8.02404213e+00" Max="1.66557239e+03"/>
    <Variable VarIndex="6" Expression="htb" Label="htb" Title="htb" Unit="" Internal="htb" Type="F" Min="1.90977879e+01" Max="2.60386133e+03"/>
    <Variable VarIndex="7" Expression="nleps" Label="nleps" Title="nleps" Unit="" Internal="nleps" Type="I" Min="2.00000000e+00" Max="3.00000000e+00"/>
    <Variable VarIndex="8" Expression="ht" Label="ht" Title="ht" Unit="" Internal="ht" Type="F" Min="2.50002441e+02" Max="4.72055713e+03"/>
    <Variable VarIndex="9" Expression="mj1j2" Label="mj1j2" Title="mj1j2" Unit="" Internal="mj1j2" Type="F" Min="3.05450478e+01" Max="3.75065430e+03"/>
    <Variable VarIndex="10" Expression="dphij1j2" Label="dphij1j2" Title="dphij1j2" Unit="" Internal="dphij1j2" Type="F" Min="1.16825104e-05" Max="3.14159226e+00"/>
    <Variable VarIndex="11" Expression="ptj1" Label="ptj1" Title="ptj1" Unit="" Internal="ptj1" Type="F" Min="4.94906960e+01" Max="2.13805957e+03"/>
    <Variable VarIndex="12" Expression="ptj2" Label="ptj2" Title="ptj2" Unit="" Internal="ptj2" Type="F" Min="3.41971092e+01" Max="1.63910962e+03"/>
    <Variable VarIndex="13" Expression="ml1j2" Label="ml1j2" Title="ml1j2" Unit="" Internal="ml1j2" Type="F" Min="1.66941109e+01" Max="2.21852563e+03"/>
    <Variable VarIndex="14" Expression="ml1j1" Label="ml1j1" Title="ml1j1" Unit="" Internal="ml1j1" Type="F" Min="1.82758713e+01" Max="2.97958862e+03"/>
    <Variable VarIndex="15" Expression="wcands" Label="wcands" Title="wcands" Unit="" Internal="wcands" Type="I" Min="0.00000000e+00" Max="1.70000000e+01"/>
    <Variable VarIndex="16" Expression="dphil1j1" Label="dphil1j1" Title="dphil1j1" Unit="" Internal="dphil1j1" Type="F" Min="3.95774841e-05" Max="3.14156890e+00"/>
    <Variable VarIndex="17" Expression="detal1l2" Label="detal1l2" Title="detal1l2" Unit="" Internal="detal1l2" Type="F" Min="5.18560410e-06" Max="4.78932190e+00"/>
    <Variable VarIndex="18" Expression="nlb40" Label="nlb40" Title="nlb40" Unit="" Internal="nlb40" Type="I" Min="0.00000000e+00" Max="9.00000000e+00"/>
    <Variable VarIndex="19" Expression="nmb40" Label="nmb40" Title="nmb40" Unit="" Internal="nmb40" Type="I" Min="0.00000000e+00" Max="6.00000000e+00"/>
    <Variable VarIndex="20" Expression="ntb40" Label="ntb40" Title="ntb40" Unit="" Internal="ntb40" Type="I" Min="0.00000000e+00" Max="5.00000000e+00"/>
    <Variable VarIndex="21" Expression="q1" Label="q1" Title="q1" Unit="" Internal="q1" Type="I" Min="-1.00000000e+00" Max="1.00000000e+00"/>
    <Variable VarIndex="22" Expression="ht4ratio" Label="ht4ratio" Title="ht4ratio" Unit="" Internal="ht4ratio" Type="F" Min="0.00000000e+00" Max="7.16665955e+01"/>
  </Variables>
  <Spectators NSpec="4">
    <Spectator SpecIndex="0" Expression="weight" Label="weight" Title="F" Unit="" Internal="weight" Type="F" Min="-3.38918120e-01" Max="4.65724796e-01"/>
    <Spectator SpecIndex="1" Expression="ptl1" Label="ptl1" Title="F" Unit="" Internal="ptl1" Type="F" Min="1.19837093e+01" Max="1.28927612e+03"/>
    <Spectator SpecIndex="2" Expression="ptl2" Label="ptl2" Title="F" Unit="" Internal="ptl2" Type="F" Min="1.19837093e+01" Max="1.28927612e+03"/>
    <Spectator SpecIndex="3" Expression="SR" Label="SR" Title="F" Unit="" Internal="SR" Type="F" Min="-1.00000000e+00" Max="1.00000000e+01"/>
  </Spectators>
  <Classes NClass="2">
    <Class Name="Background" Index="0"/>
    <Class Name="Signal" Index="1"/>
  </Classes>
  <Transformations NTransformations="0"/>
  <MVAPdfs/>
  <Weights NTrees="500" AnalysisType="0">
    <BinaryTree type="DecisionTree" boostWeight="3.5008280245676132e-01" itree="0">
      <Node pos="s" depth="0" NCoef="0" IVar="0" Cut="5.0000000000000000e+00" cType="0" res="-9.9000000000000000e+01" rms="0.0000000000000000e+00" purity="5.0000000000000000e-01" nType="0">
        <Node pos="l" depth="1" NCoef="0" IVar="18" Cut="3.0000000000000000e+00" cType="0" res="-9.9000000000000000e+01" rms="0.0000000000000000e+00" purity="7.8261518478393555e-01" nType="0">
          <Node pos="l" depth="2" NCoef="0" IVar="-1" Cut="6.0000000000000000e+00" cType="0" res="-9.9000000000000000e+01" rms="0.0000000000000000e+00" purity="8.9327949285507202e-01" nType="1"/>
          <Node pos="r" depth="2" NCoef="0" IVar="1" Cut="2.0000000000000000e+00" cType="0" res="-9.9000000000000000e+01" rms="0.0000000000000000e+00" purity="6.0373413562774658e-01" nType="0">
            <Node pos="l" depth="3" NCoef="0" IVar="5" Cut="7.2965042114257812e+01" cType="0" res="-9.9000000000000000e+01" rms="0.0000000000000000e+00" purity="7.2204458713531494e-01" nType="0">
              <Node pos="l" depth="4" NCoef="0" IVar="-1" Cut="6.0000000000000000e+00" cType="0" res="-9.9000000000000000e+01" rms="0.0000000000000000e+00" purity="7.7055794000625610e-01" nType="1"/>
              <Node pos="r" depth="4" NCoef="0" IVar="1" Cut="3.0000000000000000e+00" cType="0" res="-9.9000000000000000e+01" rms="0.0000000000000000e+00" purity="5.3098285198211670e-01" nType="0">
                <Node pos="l" depth="5" NCoef="0" IVar="-1" Cut="0.0000000000000000e+00" cType="1" res="-9.9000000000000000e+01" rms="0.0000000000000000e+00" purity="8.5197734832763672e-01" nType="1"/>
                <Node pos="r" depth="5" NCoef="0" IVar="-1" Cut="0.0000000000000000e+00" cType="1" res="-9.9000000000000000e+01" rms="0.0000000000000000e+00" purity="4.9045866727828979e-01" nType="-1"/>
              </Node>
            </Node>
            <Node pos="r" depth="3" NCoef="0" IVar="5" Cut="1.5495855712890625e+02" cType="0" res="-9.9000000000000000e+01" rms="0.0000000000000000e+00" purity="4.9278888106346130e-01" nType="0">
              <Node pos="l" depth="4" NCoef="0" IVar="12" Cut="9.8783798217773438e+01" cType="0" res="-9.9000000000000000e+01" rms="0.0000000000000000e+00" purity="6.3927024602890015e-01" nType="0">
                <Node pos="l" depth="5" NCoef="0" IVar="-1" Cut="0.0000000000000000e+00" cType="1" res="-9.9000000000000000e+01" rms="0.0000000000000000e+00" purity="6.8615967035293579e-01" nType="1"/>
                <Node pos="r" depth="5" NCoef="0" IVar="-1" Cut="0.0000000000000000e+00" cType="1" res="-9.9000000000000000e+01" rms="0.0000000000000000e+00" purity="4.9628236889839172e-01" nType="-1"/>
              </Node>
              <Node pos="r" depth="4" NCoef="0" IVar="0" Cut="7.0000000000000000e+00" cType="0" res="-9.9000000000000000e+01" rms="0.0000000000000000e+00" purity="4.1980308294296265e-01" nType="0">
                <Node pos="l" depth="5" NCoef="0" IVar="-1" Cut="0.0000000000000000e+00" cType="1" res="-9.9000000000000000e+01" rms="0.0000000000000000e+00" purity="6.7893356084823608e-01" nType="1"/>
                <Node pos="r" depth="5" NCoef="0" IVar="-1" Cut="0.0000000000000000e+00" cType="1" res="-9.9000000000000000e+01" rms="0.0000000000000000e+00" purity="3.8388398289680481e-01" nType="-1"/>
              </Node>
            </Node>
          </Node>
        </Node>
        <Node pos="r" depth="1" NCoef="0" IVar="1" Cut="3.0000000000000000e+00" cType="0" res="-9.9000000000000000e+01" rms="0.0000000000000000e+00" purity="2.6902121305465698e-01" nType="0">
          <Node pos="l" depth="2" NCoef="0" IVar="0" Cut="4.0000000000000000e+00" cType="0" res="-9.9000000000000000e+01" rms="0.0000000000000000e+00" purity="7.9757344722747803e-01" nType="0">
            <Node pos="l" depth="3" NCoef="0" IVar="-1" Cut="2.0000000000000000e+00" cType="0" res="-9.9000000000000000e+01" rms="0.0000000000000000e+00" purity="8.5021847486495972e-01" nType="1"/>
            <Node pos="r" depth="3" NCoef="0" IVar="5" Cut="6.2817790985107422e+01" cType="0" res="-9.9000000000000000e+01" rms="0.0000000000000000e+00" purity="6.6506791114807129e-01" nType="0">
              <Node pos="l" depth="4" NCoef="0" IVar="-1" Cut="2.1903819274902344e+02" cType="0" res="-9.9000000000000000e+01" rms="0.0000000000000000e+00" purity="7.2310072183609009e-01" nType="1"/>
              <Node pos="r" depth="4" NCoef="0" IVar="-1" Cut="0.0000000000000000e+00" cType="1" res="-9.9000000000000000e+01" rms="0.0000000000000000e+00" purity="3.8153281807899475e-01" nType="-1"/>
            </Node>
          </Node>
          <Node pos="r" depth="2" NCoef="0" IVar="1" Cut="2.0000000000000000e+00" cType="0" res="-9.9000000000000000e+01" rms="0.0000000000000000e+00" purity="2.1813622117042542e-01" nType="0">
            <Node pos="l" depth="3" NCoef="0" IVar="0" Cut="4.0000000000000000e+00" cType="0" res="-9.9000000000000000e+01" rms="0.0000000000000000e+00" purity="3.6436742544174194e-01" nType="0">
              <Node pos="l" depth="4" NCoef="0" IVar="18" Cut="3.0000000000000000e+00" cType="0" res="-9.9000000000000000e+01" rms="0.0000000000000000e+00" purity="4.6440121531486511e-01" nType="0">
                <Node pos="l" depth="5" NCoef="0" IVar="-1" Cut="0.0000000000000000e+00" cType="1" res="-9.9000000000000000e+01" rms="0.0000000000000000e+00" purity="6.1165231466293335e-01" nType="1"/>
                <Node pos="r" depth="5" NCoef="0" IVar="-1" Cut="0.0000000000000000e+00" cType="1" res="-9.9000000000000000e+01" rms="0.0000000000000000e+00" purity="3.9650541543960571e-01" nType="-1"/>
              </Node>
              <Node pos="r" depth="4" NCoef="0" IVar="-1" Cut="1.0600740051269531e+02" cType="0" res="-9.9000000000000000e+01" rms="0.0000000000000000e+00" purity="2.5252172350883484e-01" nType="-1"/>
            </Node>
            <Node pos="r" depth="3" NCoef="0" IVar="-1" Cut="2.0000000000000000e+00" cType="0" res="-9.9000000000000000e+01" rms="0.0000000000000000e+00" purity="1.4354120194911957e-01" nType="-1"/>
          </Node>
        </Node>
      </Node>
    </BinaryTree>
    <BinaryTree type="DecisionTree" boostWeight="2.4658225961556285e-01" itree="1">
      <Node pos="s" depth="0" NCoef="0" IVar="0" Cut="5.0000000000000000e+00" cType="0" res="-9.9000000000000000e+01" rms="0.0000000000000000e+00" purity="5.1966643333435059e-01" nType="0">
        <Node pos="l" depth="1" NCoef="0" IVar="1" Cut="3.0000000000000000e+00" cType="0" res="-9.9000000000000000e+01" rms="0.0000000000000000e+00" purity="7.2741079330444336e-01" nType="0">
          <Node pos="l" depth="2" NCoef="0" IVar="-1" Cut="6.0000000000000000e+00" cType="0" res="-9.9000000000000000e+01" rms="0.0000000000000000e+00" purity="9.2036879062652588e-01" nType="1"/>
          <Node pos="r" depth="2" NCoef="0" IVar="0" Cut="6.0000000000000000e+00" cType="0" res="-9.9000000000000000e+01" rms="0.0000000000000000e+00" purity="6.4049631357192993e-01" nType="0">
            <Node pos="l" depth="3" NCoef="0" IVar="-1" Cut="3.0000000000000000e+00" cType="0" res="-9.9000000000000000e+01" rms="0.0000000000000000e+00" purity="7.4886751174926758e-01" nType="1"/>
            <Node pos="r" depth="3" NCoef="0" IVar="2" Cut="1.4473599243164062e+02" cType="0" res="-9.9000000000000000e+01" rms="0.0000000000000000e+00" purity="5.4170578718185425e-01" nType="0">
              <Node pos="l" depth="4" NCoef="0" IVar="-1" Cut="1.0830886077880859e+02" cType="0" res="-9.9000000000000000e+01" rms="0.0000000000000000e+00" purity="6.2932294607162476e-01" nType="1"/>
              <Node pos="r" depth="4" NCoef="0" IVar="18" Cut="2.0000000000000000e+00" cType="0" res="-9.9000000000000000e+01" rms="0.0000000000000000e+00" purity="4.9609810113906860e-01" nType="0">
                <Node pos="l" depth="5" NCoef="0" IVar="-1" Cut="0.0000000000000000e+00" cType="1" res="-9.9000000000000000e+01" rms="0.0000000000000000e+00" purity="5.3059422969818115e-01" nType="1"/>
                <Node pos="r" depth="5" NCoef="0" IVar="-1" Cut="0.0000000000000000e+00" cType="1" res="-9.9000000000000000e+01" rms="0.0000000000000000e+00" purity="3.8390642404556274e-01" nType="-1"/>
              </Node>
            </Node>
          </Node>
        </Node>
        <Node pos="r" depth="1" NCoef="0" IVar="1" Cut="2.0000000000000000e+00" cType="0" res="-9.9000000000000000e+01" rms="0.0000000000000000e+00" purity="3.4801751375198364e-01" nType="0">
          <Node pos="l" depth="2" NCoef="0" IVar="1" Cut="3.0000000000000000e+00" cType="0" res="-9.9000000000000000e+01" rms="0.0000000000000000e+00" purity="5.0838476419448853e-01" nType="0">
            <Node pos="l" depth="3" NCoef="0" IVar="-1" Cut="4.0000000000000000e+00" cType="0" res="-9.9000000000000000e+01" rms="0.0000000000000000e+00" purity="7.1844226121902466e-01" nType="1"/>
            <Node pos="r" depth="3" NCoef="0" IVar="4" Cut="1.0600740051269531e+02" cType="0" res="-9.9000000000000000e+01" rms="0.0000000000000000e+00" purity="4.5374193787574768e-01" nType="0">
              <Node pos="l" depth="4" NCoef="0" IVar="0" Cut="4.0000000000000000e+00" cType="0" res="-9.9000000000000000e+01" rms="0.0000000000000000e+00" purity="5.3214877843856812e-01" nType="0">
                <Node pos="l" depth="5" NCoef="0" IVar="-1" Cut="0.0000000000000000e+00" cType="1" res="-9.9000000000000000e+01" rms="0.0000000000000000e+00" purity="6.0536581277847290e-01" nType="1"/>
                <Node pos="r" depth="5" NCoef="0" IVar="-1" Cut="0.0000000000000000e+00" cType="1" res="-9.9000000000000000e+01" rms="0.0000000000000000e+00" purity="4.4158738851547241e-01" nType="-1"/>
              </Node>
              <Node pos="r" depth="4" NCoef="0" IVar="-1" Cut="4.0000000000000000e+00" cType="0" res="-9.9000000000000000e+01" rms="0.0000000000000000e+00" purity="3.6435273289680481e-01" nType="-1"/>
            </Node>
          </Node>
          <Node pos="r" depth="2" NCoef="0" IVar="0" Cut="4.0000000000000000e+00" cType="0" res="-9.9000000000000000e+01" rms="0.0000000000000000e+00" purity="2.3251678049564362e-01" nType="0">
            <Node pos="l" depth="3" NCoef="0" IVar="5" Cut="8.7086189270019531e+01" cType="0" res="-9.9000000000000000e+01" rms="0.0000000000000000e+00" purity="3.5179096460342407e-01" nType="0">
              <Node pos="l" depth="4" NCoef="0" IVar="4" Cut="1.2462570190429688e+02" cType="0" res="-9.9000000000000000e+01" rms="0.0000000000000000e+00" purity="4.3356338143348694e-01" nType="0">
                <Node pos="l" depth="5" NCoef="0" IVar="-1" Cut="0.0000000000000000e+00" cType="1" res="-9.9000000000000000e+01" rms="0.0000000000000000e+00" purity="5.5246549844741821e-01" nType="1"/>
                <Node pos="r" depth="5" NCoef="0" IVar="-1" Cut="0.0000000000000000e+00" cType="1" res="-9.9000000000000000e+01" rms="0.0000000000000000e+00" purity="3.4557187557220459e-01" nType="-1"/>
              </Node>
              <Node pos="r" depth="4" NCoef="0" IVar="-1" Cut="1.4921144104003906e+02" cType="0" res="-9.9000000000000000e+01" rms="0.0000000000000000e+00" purity="2.2243167459964752e-01" nType="-1"/>
            </Node>
            <Node pos="r" depth="3" NCoef="0" IVar="18" Cut="3.0000000000000000e+00" cType="0" res="-9.9000000000000000e+01" rms="0.0000000000000000e+00" purity="1.4929300546646118e-01" nType="0">
              <Node pos="l" depth="4" NCoef="0" IVar="2" Cut="1.2851892089843750e+02" cType="0" res="-9.9000000000000000e+01" rms="0.0000000000000000e+00" purity="4.7896412014961243e-01" nType="0">
                <Node pos="l" depth="5" NCoef="0" IVar="-1" Cut="0.0000000000000000e+00" cType="1" res="-9.9000000000000000e+01" rms="0.0000000000000000e+00" purity="6.6615903377532959e-01" nType="1"/>
                <Node pos="r" depth="5" NCoef="0" IVar="-1" Cut="0.0000000000000000e+00" cType="1" res="-9.9000000000000000e+01" rms="0.0000000000000000e+00" purity="3.4986895322799683e-01" nType="-1"/>
              </Node>
              <Node pos="r" depth="4" NCoef="0" IVar="-1" Cut="3.0000000000000000e+00" cType="0" res="-9.9000000000000000e+01" rms="0.0000000000000000e+00" purity="1.3792817294597626e-01" nType="-1"/>
            </Node>
          </Node>
        </Node>
      </Node>
    </BinaryTree>
    <BinaryTree type="DecisionTree" boostWeight="1.8950027737582401e-01" itree="2">
      <Node pos="s" depth="0" NCoef="0" IVar="1" Cut="3.0000000000000000e+00" cType="0" res="-9.9000000000000000e+01" rms="0.0000000000000000e+00" purity="5.0745576620101929e-01" nType="0">
        <Node pos="l" depth="1" NCoef="0" IVar="0" Cut="5.0000000000000000e+00" cType="0" res="-9.9000000000000000e+01" rms="0.0000000000000000e+00" purity="8.2985252141952515e-01" nType="0">
          <Node pos="l" depth="2" NCoef="0" IVar="-1" Cut="6.0000000000000000e+00" cType="0" res="-9.9000000000000000e+01" rms="0.0000000000000000e+00" purity="8.9362126588821411e-01" nType="1"/>
          <Node pos="r" depth="2" NCoef="0" IVar="1" Cut="4.0000000000000000e+00" cType="0" res="-9.9000000000000000e+01" rms="0.0000000000000000e+00" purity="6.5270912647247314e-01" nType="0">
            <Node pos="l" depth="3" NCoef="0" IVar="-1" Cut="1.2263948822021484e+02" cType="0" res="-9.9000000000000000e+01" rms="0.0000000000000000e+00" purity="8.8498121500015259e-01" nType="1"/>
            <Node pos="r" depth="3" NCoef="0" IVar="0" Cut="4.0000000000000000e+00" cType="0" res="-9.9000000000000000e+01" rms="0.0000000000000000e+00" purity="6.1485290527343750e-01" nType="0">
              <Node pos="l" depth="4" NCoef="0" IVar="-1" Cut="1.2217263031005859e+02" cType="0" res="-9.9000000000000000e+01" rms="0.0000000000000000e+00" purity="6.7904317378997803e-01" nType="1"/>
              <Node pos="r" depth="4" NCoef="0" IVar="2" Cut="2.1901130676269531e+02" cType="0" res="-9.9000000000000000e+01" rms="0.0000000000000000e+00" purity="4.8339346051216125e-01" nType="0">
                <Node pos="l" depth="5" NCoef="0" IVar="-1" Cut="0.0000000000000000e+00" cType="1" res="-9.9000000000000000e+01" rms="0.0000000000000000e+00" purity="7.1411776542663574e-01" nType="1"/>
                <Node pos="r" depth="5" NCoef="0" IVar="-1" Cut="0.0000000000000000e+00" cType="1" res="-9.9000000000000000e+01" rms="0.0000000000000000e+00" purity="4.3348231911659241e-01" nType="-1"/>
              </Node>
            </Node>
          </Node>
        </Node>
        <Node pos="r" depth="1" NCoef="0" IVar="0" Cut="4.0000000000000000e+00" cType="0" res="-9.9000000000000000e+01" rms="0.0000000000000000e+00" purity="4.3808743357658386e-01" nType="0">
          <Node pos="l" depth="2" NCoef="0" IVar="0" Cut="6.0000000000000000e+00" cType="0" res="-9.9000000000000000e+01" rms="0.0000000000000000e+00" purity="5.1628512144088745e-01" nType="0">
            <Node pos="l" depth="3" NCoef="0" IVar="18" Cut="3.0000000000000000e+00" cType="0" res="-9.9000000000000000e+01" rms="0.0000000000000000e+00" purity="6.7581534385681152e-01" nType="0">
              <Node pos="l" depth="4" NCoef="0" IVar="-1" Cut="7.0000000000000000e+00" cType="0" res="-9.9000000000000000e+01" rms="0.0000000000000000e+00" purity="7.5964438915252686e-01" nType="1"/>
              <Node pos="r" depth="4" NCoef="0" IVar="4" Cut="8.7656295776367188e+01" cType="0" res="-9.9000000000000000e+01" rms="0.0000000000000000e+00" purity="5.9632104635238647e-01" nType="0">
                <Node pos="l" depth="5" NCoef="0" IVar="-1" Cut="0.0000000000000000e+00" cType="1" res="-9.9000000000000000e+01" rms="0.0000000000000000e+00" purity="6.3562637567520142e-01" nType="1"/>
                <Node pos="r" depth="5" NCoef="0" IVar="-1" Cut="0.0000000000000000e+00" cType="1" res="-9.9000000000000000e+01" rms="0.0000000000000000e+00" purity="4.9995133280754089e-01" nType="-1"/>
              </Node>
            </Node>
            <Node pos="r" depth="3" NCoef="0" IVar="5" Cut="8.7002799987792969e+01" cType="0" res="-9.9000000000000000e+01" rms="0.0000000000000000e+00" purity="4.5921894907951355e-01" nType="0">
              <Node pos="l" depth="4" NCoef="0" IVar="1" Cut="2.0000000000000000e+00" cType="0" res="-9.9000000000000000e+01" rms="0.0000000000000000e+00" purity="5.0146216154098511e-01" nType="0">
                <Node pos="l" depth="5" NCoef="0" IVar="-1" Cut="0.0000000000000000e+00" cType="1" res="-9.9000000000000000e+01" rms="0.0000000000000000e+00" purity="5.5464303493499756e-01" nType="1"/>
                <Node pos="r" depth="5" NCoef="0" IVar="-1" Cut="0.0000000000000000e+00" cType="1" res="-9.9000000000000000e+01" rms="0.0000000000000000e+00" purity="4.5226967334747314e-01" nType="-1"/>
              </Node>
              <Node pos="r" depth="4" NCoef="0" IVar="-1" Cut="1.1189234161376953e+02" cType="0" res="-9.9000000000000000e+01" rms="0.0000000000000000e+00" purity="3.7921589612960815e-01" nType="-1"/>
            </Node>
          </Node>
          <Node pos="r" depth="2" NCoef="0" IVar="1" Cut="2.0000000000000000e+00" cType="0" res="-9.9000000000000000e+01" rms="0.0000000000000000e+00" purity="2.6882553100585938e-01" nType="0">
            <Node pos="l" depth="3" NCoef="0" IVar="4" Cut="1.0600740051269531e+02" cType="0" res="-9.9000000000000000e+01" rms="0.0000000000000000e+00" purity="4.3703204393386841e-01" nType="0">
              <Node pos="l" depth="4" NCoef="0" IVar="19" Cut="2.0000000000000000e+00" cType="1" res="-9.9000000000000000e+01" rms="0.0000000000000000e+00" purity="5.1648437976837158e-01" nType="0">
                <Node pos="l" depth="5" NCoef="0" IVar="-1" Cut="0.0000000000000000e+00" cType="1" res="-9.9000000000000000e+01" rms="0.0000000000000000e+00" purity="6.1230748891830444e-01" nType="1"/>
                <Node pos="r" depth="5" NCoef="0" IVar="-1" Cut="0.0000000000000000e+00" cType="1" res="-9.9000000000000000e+01" rms="0.0000000000000000e+00" purity="4.6072500944137573e-01" nType="-1"/>
              </Node>
              <Node pos="r" depth="4" NCoef="0" IVar="-1" Cut="3.0000000000000000e+00" cType="0" res="-9.9000000000000000e+01" rms="0.0000000000000000e+00" purity="3.4047320485115051e-01" nType="-1"/>
            </Node>
            <Node pos="r" depth="3" NCoef="0" IVar="-1" Cut="2.0000000000000000e+00" cType="0" res="-9.9000000000000000e+01" rms="0.0000000000000000e+00" purity="1.9126568734645844e-01" nType="-1"/>
          </Node>
        </Node>
      </Node>
    </BinaryTree>
    <BinaryTree type="DecisionTree" boostWeight="1.5519316628297875e-01" itree="3">
      <Node pos="s" depth="0" NCoef="0" IVar="1" Cut="3.0000000000000000e+00" cType="0" res="-9.9000000000000000e+01" rms="0.0000000000000000e+00" purity="5.1756405830383301e-01" nType="0">
        <Node pos="l" depth="1" NCoef="0" IVar="-1" Cut="6.0000000000000000e+00" cType="0" res="-9.9000000000000000e+01" rms="0.0000000000000000e+00" purity="8.0501115322113037e-01" nType="1"/>
        <Node pos="r" depth="1" NCoef="0" IVar="0" Cut="4.0000000000000000e+00" cType="0" res="-9.9000000000000000e+01" rms="0.0000000000000000e+00" purity="4.5903435349464417e-01" nType="0">
          <Node pos="l" depth="2" NCoef="0" IVar="0" Cut="6.0000000000000000e+00" cType="0" res="-9.9000000000000000e+01" rms="0.0000000000000000e+00" purity="5.2649694681167603e-01" nType="0">
            <Node pos="l" depth="3" NCoef="0" IVar="-1" Cut="4.0000000000000000e+00" cType="0" res="-9.9000000000000000e+01" rms="0.0000000000000000e+00" purity="6.4484822750091553e-01" nType="1"/>
            <Node pos="r" depth="3" NCoef="0" IVar="8" Cut="3.9491992187500000e+02" cType="0" res="-9.9000000000000000e+01" rms="0.0000000000000000e+00" purity="4.8501926660537720e-01" nType="0">
              <Node pos="l" depth="4" NCoef="0" IVar="2" Cut="1.4474266052246094e+02" cType="0" res="-9.9000000000000000e+01" rms="0.0000000000000000e+00" purity="5.2311408519744873e-01" nType="0">
                <Node pos="l" depth="5" NCoef="0" IVar="-1" Cut="0.0000000000000000e+00" cType="1" res="-9.9000000000000000e+01" rms="0.0000000000000000e+00" purity="5.8514136075973511e-01" nType="1"/>
                <Node pos="r" depth="5" NCoef="0" IVar="-1" Cut="0.0000000000000000e+00" cType="1" res="-9.9000000000000000e+01" rms="0.0000000000000000e+00" purity="4.8987698554992676e-01" nType="-1"/>
              </Node>
              <Node pos="r" depth="4" NCoef="0" IVar="-1" Cut="1.1377241516113281e+02" cType="0" res="-9.9000000000000000e+01" rms="0.0000000000000000e+00" purity="4.0386080741882324e-01" nType="-1"/>
            </Node>
          </Node>
          <Node pos="r" depth="2" NCoef="0" IVar="1" Cut="2.0000000000000000e+00" cType="0" res="-9.9000000000000000e+01" rms="0.0000000000000000e+00" purity="3.0547013878822327e-01" nType="0">
            <Node pos="l" depth="3" NCoef="0" IVar="3" Cut="1.0962325286865234e+02" cType="0" res="-9.9000000000000000e+01" rms="0.0000000000000000e+00" purity="4.6417403221130371e-01" nType="0">
              <Node pos="l" depth="4" NCoef="0" IVar="21" Cut="0.0000000000000000e+00" cType="1" res="-9.9000000000000000e+01" rms="0.0000000000000000e+00" purity="5.8013504743576050e-01" nType="0">
                <Node pos="l" depth="5" NCoef="0" IVar="-1" Cut="0.0000000000000000e+00" cType="1" res="-9.9000000000000000e+01" rms="0.0000000000000000e+00" purity="6.7537802457809448e-01" nType="1"/>
                <Node pos="r" depth="5" NCoef="0" IVar="-1" Cut="0.0000000000000000e+00" cType="1" res="-9.9000000000000000e+01" rms="0.0000000000000000e+00" purity="4.9830266833305359e-01" nType="-1"/>
              </Node>
              <Node pos="r" depth="4" NCoef="0" IVar="-1" Cut="3.0000000000000000e+00" cType="0" res="-9.9000000000000000e+01" rms="0.0000000000000000e+00" purity="4.1373524069786072e-01" nType="-1"/>
            </Node>
            <Node pos="r" depth="3" NCoef="0" IVar="-1" Cut="2.0000000000000000e+00" cType="0" res="-9.9000000000000000e+01" rms="0.0000000000000000e+00" purity="2.2819016873836517e-01" nType="-1"/>
          </Node>
        </Node>
      </Node>
    </BinaryTree>
    <BinaryTree type="DecisionTree" boostWeight="1.4419335584973500e-01" itree="4">
      <Node pos="s" depth="0" NCoef="0" IVar="18" Cut="3.0000000000000000e+00" cType="0" res="-9.9000000000000000e+01" rms="0.0000000000000000e+00" purity="5.2556198835372925e-01" nType="0">
        <Node pos="l" depth="1" NCoef="0" IVar="18" Cut="4.0000000000000000e+00" cType="0" res="-9.9000000000000000e+01" rms="0.0000000000000000e+00" purity="6.8282794952392578e-01" nType="0">
          <Node pos="l" depth="2" NCoef="0" IVar="-1" Cut="3.0000000000000000e+00" cType="0" res="-9.9000000000000000e+01" rms="0.0000000000000000e+00" purity="8.3477354049682617e-01" nType="1"/>
          <Node pos="r" depth="2" NCoef="0" IVar="20" Cut="3.0000000000000000e+00" cType="0" res="-9.9000000000000000e+01" rms="0.0000000000000000e+00" purity="6.0980325937271118e-01" nType="0">
            <Node pos="l" depth="3" NCoef="0" IVar="-1" Cut="6.4126342773437500e+01" cType="0" res="-9.9000000000000000e+01" rms="0.0000000000000000e+00" purity="8.4574896097183228e-01" nType="1"/>
            <Node pos="r" depth="3" NCoef="0" IVar="8" Cut="4.4874661254882812e+02" cType="0" res="-9.9000000000000000e+01" rms="0.0000000000000000e+00" purity="5.9120148420333862e-01" nType="0">
              <Node pos="l" depth="4" NCoef="0" IVar="-1" Cut="3.0000000000000000e+00" cType="0" res="-9.9000000000000000e+01" rms="0.0000000000000000e+00" purity="6.3481462001800537e-01" nType="1"/>
              <Node pos="r" depth="4" NCoef="0" IVar="1" Cut="4.0000000000000000e+00" cType="0" res="-9.9000000000000000e+01" rms="0.0000000000000000e+00" purity="5.0279724597930908e-01" nType="0">
                <Node pos="l" depth="5" NCoef="0" IVar="-1" Cut="0.0000000000000000e+00" cType="1" res="-9.9000000000000000e+01" rms="0.0000000000000000e+00" purity="8.7203055620193481e-01" nType="1"/>
                <Node pos="r" depth="5" NCoef="0" IVar="-1" Cut="0.0000000000000000e+00" cType="1" res="-9.9000000000000000e+01" rms="0.0000000000000000e+00" purity="4.9245390295982361e-01" nType="-1"/>
              </Node>
            </Node>
          </Node>
        </Node>
        <Node pos="r" depth="1" NCoef="0" IVar="0" Cut="4.0000000000000000e+00" cType="0" res="-9.9000000000000000e+01" rms="0.0000000000000000e+00" purity="4.4474685192108154e-01" nType="0">
          <Node pos="l" depth="2" NCoef="0" IVar="3" Cut="1.2031238555908203e+02" cType="0" res="-9.9000000000000000e+01" rms="0.0000000000000000e+00" purity="5.1284766197204590e-01" nType="0">
            <Node pos="l" depth="3" NCoef="0" IVar="-1" Cut="3.0000000000000000e+00" cType="0" res="-9.9000000000000000e+01" rms="0.0000000000000000e+00" purity="5.9962290525436401e-01" nType="1"/>
            <Node pos="r" depth="3" NCoef="0" IVar="18" Cut="2.0000000000000000e+00" cType="0" res="-9.9000000000000000e+01" rms="0.0000000000000000e+00" purity="4.8855301737785339e-01" nType="0">
              <Node pos="l" depth="4" NCoef="0" IVar="12" Cut="9.1288978576660156e+01" cType="0" res="-9.9000000000000000e+01" rms="0.0000000000000000e+00" purity="5.1979029178619385e-01" nType="0">
                <Node pos="l" depth="5" NCoef="0" IVar="-1" Cut="0.0000000000000000e+00" cType="1" res="-9.9000000000000000e+01" rms="0.0000000000000000e+00" purity="5.4630857706069946e-01" nType="1"/>
                <Node pos="r" depth="5" NCoef="0" IVar="-1" Cut="0.0000000000000000e+00" cType="1" res="-9.9000000000000000e+01" rms="0.0000000000000000e+00" purity="4.5566892623901367e-01" nType="-1"/>
              </Node>
              <Node pos="r" depth="4" NCoef="0" IVar="1" Cut="2.0000000000000000e+00" cType="0" res="-9.9000000000000000e+01" rms="0.0000000000000000e+00" purity="4.2605713009834290e-01" nType="0">
                <Node pos="l" depth="5" NCoef="0" IVar="-1" Cut="0.0000000000000000e+00" cType="1" res="-9.9000000000000000e+01" rms="0.0000000000000000e+00" purity="5.8585822582244873e-01" nType="1"/>
                <Node pos="r" depth="5" NCoef="0" IVar="-1" Cut="0.0000000000000000e+00" cType="1" res="-9.9000000000000000e+01" rms="0.0000000000000000e+00" purity="3.9099541306495667e-01" nType="-1"/>
              </Node>
            </Node>
          </Node>
          <Node pos="r" depth="2" NCoef="0" IVar="1" Cut="2.0000000000000000e+00" cType="0" res="-9.9000000000000000e+01" rms="0.0000000000000000e+00" purity="3.2426965236663818e-01" nType="0">
            <Node pos="l" depth="3" NCoef="0" IVar="4" Cut="1.0600740051269531e+02" cType="0" res="-9.9000000000000000e+01" rms="0.0000000000000000e+00" purity="4.7778242826461792e-01" nType="0">
              <Node pos="l" depth="4" NCoef="0" IVar="7" Cut="3.0000000000000000e+00" cType="0" res="-9.9000000000000000e+01" rms="0.0000000000000000e+00" purity="5.3842055797576904e-01" nType="0">
                <Node pos="l" depth="5" NCoef="0" IVar="-1" Cut="0.0000000000000000e+00" cType="1" res="-9.9000000000000000e+01" rms="0.0000000000000000e+00" purity="5.9417492151260376e-01" nType="1"/>
                <Node pos="r" depth="5" NCoef="0" IVar="-1" Cut="0.0000000000000000e+00" cType="1" res="-9.9000000000000000e+01" rms="0.0000000000000000e+00" purity="4.9119243025779724e-01" nType="-1"/>
              </Node>
              <Node pos="r" depth="4" NCoef="0" IVar="19" Cut="2.0000000000000000e+00" cType="1" res="-9.9000000000000000e+01" rms="0.0000000000000000e+00" purity="4.0233939886093140e-01" nType="0">
                <Node pos="l" depth="5" NCoef="0" IVar="-1" Cut="0.0000000000000000e+00" cType="1" res="-9.9000000000000000e+01" rms="0.0000000000000000e+00" purity="5.3299421072006226e-01" nType="1"/>
                <Node pos="r" depth="5" NCoef="0" IVar="-1" Cut="0.0000000000000000e+00" cType="1" res="-9.9000000000000000e+01" rms="0.0000000000000000e+00" purity="3.4479665756225586e-01" nType="-1"/>
              </Node>
            </Node>
            <Node pos="r" depth="3" NCoef="0" IVar="-1" Cut="3.0000000000000000e+00" cType="0" res="-9.9000000000000000e+01" rms="0.0000000000000000e+00" purity="2.4690608680248260e-01" nType="-1"/>
          </Node>
        </Node>
      </Node>
    </BinaryTree>
    <BinaryTree type="DecisionTree" boostWeight="1.1812412325131083e-01" itree="5">
      <Node pos="s" depth="0" NCoef="0" IVar="1" Cut="3.0000000000000000e+00" cType="0" res="-9.9000000000000000e+01" rms="0.0000000000000000e+00" purity="5.1994764804840088e-01" nType="0">
        <Node pos="l" depth="1" NCoef="0" IVar="0" Cut="6.0000000000000000e+00" cType="0" res="-9.9000000000000000e+01" rms="0.0000000000000000e+00" purity="7.6305913925170898e-01" nType="0">
          <Node pos="l" depth="2" NCoef="0" IVar="-1" Cut="4.0000000000000000e+00" cType="0" res="-9.9000000000000000e+01" rms="0.0000000000000000e+00" purity="8.8865000009536743e-01" nType="1"/>
          <Node pos="r" depth="2" NCoef="0" IVar="1" Cut="4.0000000000000000e+00" cType="0" res="-9.9000000000000000e+01" rms="0.0000000000000000e+00" purity="6.5790027379989624e-01" nType="0">
            <Node pos="l" depth="3" NCoef="0" IVar="-1" Cut="6.8009185791015625e+01" cType="0" res="-9.9000000000000000e+01" rms="0.0000000000000000e+00" purity="8.7444841861724854e-01" nType="1"/>
            <Node pos="r" depth="3" NCoef="0" IVar="4" Cut="1.4098609924316406e+02" cType="0" res="-9.9000000000000000e+01" rms="0.0000000000000000e+00" purity="6.1899560689926147e-01" nType="0">
              <Node pos="l" depth="4" NCoef="0" IVar="-1" Cut="3.0000000000000000e+00" cType="0" res="-9.9000000000000000e+01" rms="0.0000000000000000e+00" purity="7.1241432428359985e-01" nType="1"/>
              <Node pos="r" depth="4" NCoef="0" IVar="20" Cut="2.0000000000000000e+00" cType="0" res="-9.9000000000000000e+01" rms="0.0000000000000000e+00" purity="5.6680589914321899e-01" nType="0">
                <Node pos="l" depth="5" NCoef="0" IVar="-1" Cut="0.0000000000000000e+00" cType="1" res="-9.9000000000000000e+01" rms="0.0000000000000000e+00" purity="6.2797898054122925e-01" nType="1"/>
                <Node pos="r" depth="5" NCoef="0" IVar="-1" Cut="0.0000000000000000e+00" cType="1" res="-9.9000000000000000e+01" rms="0.0000000000000000e+00" purity="4.8658624291419983e-01" nType="-1"/>
              </Node>
            </Node>
          </Node>
        </Node>
        <Node pos="r" depth="1" NCoef="0" IVar="0" Cut="3.0000000000000000e+00" cType="0" res="-9.9000000000000000e+01" rms="0.0000000000000000e+00" purity="4.7387886047363281e-01" nType="0">
          <Node pos="l" depth="2" NCoef="0" IVar="18" Cut="2.0000000000000000e+00" cType="0" res="-9.9000000000000000e+01" rms="0.0000000000000000e+00" purity="4.9465152621269226e-01" nType="0">
            <Node pos="l" depth="3" NCoef="0" IVar="18" Cut="4.0000000000000000e+00" cType="0" res="-9.9000000000000000e+01" rms="0.0000000000000000e+00" purity="5.2998286485671997e-01" nType="0">
              <Node pos="l" depth="4" NCoef="0" IVar="-1" Cut="7.0000000000000000e+00" cType="0" res="-9.9000000000000000e+01" rms="0.0000000000000000e+00" purity="6.9948214292526245e-01" nType="1"/>
              <Node pos="r" depth="4" NCoef="0" IVar="3" Cut="8.0202423095703125e+01" cType="0" res="-9.9000000000000000e+01" rms="0.0000000000000000e+00" purity="5.1586306095123291e-01" nType="0">
                <Node pos="l" depth="5" NCoef="0" IVar="-1" Cut="0.0000000000000000e+00" cType="1" res="-9.9000000000000000e+01" rms="0.0000000000000000e+00" purity="5.6040155887603760e-01" nType="1"/>
                <Node pos="r" depth="5" NCoef="0" IVar="-1" Cut="0.0000000000000000e+00" cType="1" res="-9.9000000000000000e+01" rms="0.0000000000000000e+00" purity="4.7277769446372986e-01" nType="-1"/>
              </Node>
            </Node>
            <Node pos="r" depth="3" NCoef="0" IVar="0" Cut="5.0000000000000000e+00" cType="0" res="-9.9000000000000000e+01" rms="0.0000000000000000e+00" purity="4.0734234452247620e-01" nType="0">
              <Node pos="l" depth="4" NCoef="0" IVar="-1" Cut="1.0000000000000000e+00" cType="1" res="-9.9000000000000000e+01" rms="0.0000000000000000e+00" purity="5.3009849786758423e-01" nType="1"/>
              <Node pos="r" depth="4" NCoef="0" IVar="-1" Cut="8.6954917907714844e+01" cType="0" res="-9.9000000000000000e+01" rms="0.0000000000000000e+00" purity="3.5976937413215637e-01" nType="-1"/>
            </Node>
          </Node>
          <Node pos="r" depth="2" NCoef="0" IVar="1" Cut="2.0000000000000000e+00" cType="0" res="-9.9000000000000000e+01" rms="0.0000000000000000e+00" purity="1.9126176834106445e-01" nType="0">
            <Node pos="l" depth="3" NCoef="0" IVar="4" Cut="1.0605857849121094e+02" cType="0" res="-9.9000000000000000e+01" rms="0.0000000000000000e+00" purity="3.1648996472358704e-01" nType="0">
              <Node pos="l" depth="4" NCoef="0" IVar="8" Cut="4.0924963378906250e+02" cType="0" res="-9.9000000000000000e+01" rms="0.0000000000000000e+00" purity="4.0015453100204468e-01" nType="0">
                <Node pos="l" depth="5" NCoef="0" IVar="-1" Cut="0.0000000000000000e+00" cType="1" res="-9.9000000000000000e+01" rms="0.0000000000000000e+00" purity="5.1599287986755371e-01" nType="1"/>
                <Node pos="r" depth="5" NCoef="0" IVar="-1" Cut="0.0000000000000000e+00" cType="1" res="-9.9000000000000000e+01" rms="0.0000000000000000e+00" purity="3.3270421624183655e-01" nType="-1"/>
              </Node>
              <Node pos="r" depth="4" NCoef="0" IVar="-1" Cut="2.5344676208496094e+02" cType="0" res="-9.9000000000000000e+01" rms="0.0000000000000000e+00" purity="1.9080421328544617e-01" nType="-1"/>
            </Node>
            <Node pos="r" depth="3" NCoef="0" IVar="-1" Cut="1.7441116333007812e+02" cType="0" res="-9.9000000000000000e+01" rms="0.0000000000000000e+00" purity="1.5450936555862427e-01" nType="-1"/>
          </Node>
        </Node>
      </Node>
    </BinaryTree>
    <BinaryTree type="DecisionTree" boostWeight="1.0384079465713482e-01" itree="6">
      <Node pos="s" depth="0" NCoef="0" IVar="1" Cut="3.0000000000000000e+00" cType="0" res="-9.9000000000000000e+01" rms="0.0000000000000000e+00" purity="5.2190023660659790e-01" nType="0">
        <Node pos="l" depth="1" NCoef="0" IVar="0" Cut="6.0000000000000000e+00" cType="0" res="-9.9000000000000000e+01" rms="0.0000000000000000e+00" purity="7.4960726499557495e-01" nType="0">
          <Node pos="l" depth="2" NCoef="0" IVar="-1" Cut="4.0000000000000000e+00" cType="0" res="-9.9000000000000000e+01" rms="0.0000000000000000e+00" purity="8.7525659799575806e-01" nType="1"/>
          <Node pos="r" depth="2" NCoef="0" IVar="1" Cut="4.0000000000000000e+00" cType="0" res="-9.9000000000000000e+01" rms="0.0000000000000000e+00" purity="6.4870142936706543e-01" nType="0">
            <Node pos="l" depth="3" NCoef="0" IVar="-1" Cut="6.8009185791015625e+01" cType="0" res="-9.9000000000000000e+01" rms="0.0000000000000000e+00" purity="8.6021965742111206e-01" nType="1"/>
            <Node pos="r" depth="3" NCoef="0" IVar="22" Cut="3.4126949310302734e+00" cType="0" res="-9.9000000000000000e+01" rms="0.0000000000000000e+00" purity="6.1246836185455322e-01" nType="0">
              <Node pos="l" depth="4" NCoef="0" IVar="-1" Cut="1.1411470794677734e+02" cType="0" res="-9.9000000000000000e+01" rms="0.0000000000000000e+00" purity="6.8381029367446899e-01" nType="1"/>
              <Node pos="r" depth="4" NCoef="0" IVar="19" Cut="3.0000000000000000e+00" cType="1" res="-9.9000000000000000e+01" rms="0.0000000000000000e+00" purity="5.5711770057678223e-01" nType="0">
                <Node pos="l" depth="5" NCoef="0" IVar="-1" Cut="0.0000000000000000e+00" cType="1" res="-9.9000000000000000e+01" rms="0.0000000000000000e+00" purity="6.1655229330062866e-01" nType="1"/>
                <Node pos="r" depth="5" NCoef="0" IVar="-1" Cut="0.0000000000000000e+00" cType="1" res="-9.9000000000000000e+01" rms="0.0000000000000000e+00" purity="4.8627614974975586e-01" nType="-1"/>
              </Node>
            </Node>
          </Node>
        </Node>
        <Node pos="r" depth="1" NCoef="0" IVar="0" Cut="3.0000000000000000e+00" cType="0" res="-9.9000000000000000e+01" rms="0.0000000000000000e+00" purity="4.7995817661285400e-01" nType="0">
          <Node pos="l" depth="2" NCoef="0" IVar="18" Cut="3.0000000000000000e+00" cType="0" res="-9.9000000000000000e+01" rms="0.0000000000000000e+00" purity="4.9910184741020203e-01" nType="0">
            <Node pos="l" depth="3" NCoef="0" IVar="-1" Cut="7.0000000000000000e+00" cType="0" res="-9.9000000000000000e+01" rms="0.0000000000000000e+00" purity="5.8404392004013062e-01" nType="1"/>
            <Node pos="r" depth="3" NCoef="0" IVar="0" Cut="4.0000000000000000e+00" cType="0" res="-9.9000000000000000e+01" rms="0.0000000000000000e+00" purity="4.6868231892585754e-01" nType="0">
              <Node pos="l" depth="4" NCoef="0" IVar="19" Cut="1.0000000000000000e+00" cType="1" res="-9.9000000000000000e+01" rms="0.0000000000000000e+00" purity="4.9641647934913635e-01" nType="0">
                <Node pos="l" depth="5" NCoef="0" IVar="-1" Cut="0.0000000000000000e+00" cType="1" res="-9.9000000000000000e+01" rms="0.0000000000000000e+00" purity="6.4836317300796509e-01" nType="1"/>
                <Node pos="r" depth="5" NCoef="0" IVar="-1" Cut="0.0000000000000000e+00" cType="1" res="-9.9000000000000000e+01" rms="0.0000000000000000e+00" purity="4.8556870222091675e-01" nType="-1"/>
              </Node>
              <Node pos="r" depth="4" NCoef="0" IVar="7" Cut="3.0000000000000000e+00" cType="0" res="-9.9000000000000000e+01" rms="0.0000000000000000e+00" purity="4.0039578080177307e-01" nType="0">
                <Node pos="l" depth="5" NCoef="0" IVar="-1" Cut="0.0000000000000000e+00" cType="1" res="-9.9000000000000000e+01" rms="0.0000000000000000e+00" purity="5.1934599876403809e-01" nType="1"/>
                <Node pos="r" depth="5" NCoef="0" IVar="-1" Cut="0.0000000000000000e+00" cType="1" res="-9.9000000000000000e+01" rms="0.0000000000000000e+00" purity="3.3087551593780518e-01" nType="-1"/>
              </Node>
            </Node>
          </Node>
          <Node pos="r" depth="2" NCoef="0" IVar="2" Cut="1.3411924743652344e+02" cType="0" res="-9.9000000000000000e+01" rms="0.0000000000000000e+00" purity="2.0814977586269379e-01" nType="0">
            <Node pos="l" depth="3" NCoef="0" IVar="10" Cut="2.3929517269134521e+00" cType="1" res="-9.9000000000000000e+01" rms="0.0000000000000000e+00" purity="3.0035528540611267e-01" nType="0">
              <Node pos="l" depth="4" NCoef="0" IVar="3" Cut="1.0996443176269531e+02" cType="0" res="-9.9000000000000000e+01" rms="0.0000000000000000e+00" purity="3.8929212093353271e-01" nType="0">
                <Node pos="l" depth="5" NCoef="0" IVar="-1" Cut="0.0000000000000000e+00" cType="1" res="-9.9000000000000000e+01" rms="0.0000000000000000e+00" purity="5.8142513036727905e-01" nType="1"/>
                <Node pos="r" depth="5" NCoef="0" IVar="-1" Cut="0.0000000000000000e+00" cType="1" res="-9.9000000000000000e+01" rms="0.0000000000000000e+00" purity="3.2703769207000732e-01" nType="-1"/>
              </Node>
              <Node pos="r" depth="4" NCoef="0" IVar="-1" Cut="2.9984161853790283e+00" cType="0" res="-9.9000000000000000e+01" rms="0.0000000000000000e+00" purity="2.0091794431209564e-01" nType="-1"/>
            </Node>
            <Node pos="r" depth="3" NCoef="0" IVar="11" Cut="5.3124615478515625e+02" cType="0" res="-9.9000000000000000e+01" rms="0.0000000000000000e+00" purity="1.5801523625850677e-01" nType="0">
              <Node pos="l" depth="4" NCoef="0" IVar="-1" Cut="0.0000000000000000e+00" cType="1" res="-9.9000000000000000e+01" rms="0.0000000000000000e+00" purity="5.5700206756591797e-01" nType="1"/>
              <Node pos="r" depth="4" NCoef="0" IVar="-1" Cut="2.0000000000000000e+00" cType="0" res="-9.9000000000000000e+01" rms="0.0000000000000000e+00" purity="1.4134612679481506e-01" nType="-1"/>
            </Node>
          </Node>
        </Node>
      </Node>
    </BinaryTree>
    <BinaryTree type="DecisionTree" boostWeight="1.0371654389578501e-01" itree="7">
      <Node pos="s" depth="0" NCoef="0" IVar="1" Cut="3.0000000000000000e+00" cType="0" res="-9.9000000000000000e+01" rms="0.0000000000000000e+00" purity="5.2708625793457031e-01" nType="0">
        <Node pos="l" depth="1" NCoef="0" IVar="-1" Cut="6.0000000000000000e+00" cType="0" res="-9.9000000000000000e+01" rms="0.0000000000000000e+00" purity="7.3662316799163818e-01" nType="1"/>
        <Node pos="r" depth="1" NCoef="0" IVar="0" Cut="4.0000000000000000e+00" cType="0" res="-9.9000000000000000e+01" rms="0.0000000000000000e+00" purity="4.8948770761489868e-01" nType="0">
          <Node pos="l" depth="2" NCoef="0" IVar="0" Cut="7.0000000000000000e+00" cType="0" res="-9.9000000000000000e+01" rms="0.0000000000000000e+00" purity="5.3463321924209595e-01" nType="0">
            <Node pos="l" depth="3" NCoef="0" IVar="1" Cut="2.0000000000000000e+00" cType="0" res="-9.9000000000000000e+01" rms="0.0000000000000000e+00" purity="6.7220991849899292e-01" nType="0">
              <Node pos="l" depth="4" NCoef="0" IVar="-1" Cut="3.0000000000000000e+00" cType="1" res="-9.9000000000000000e+01" rms="0.0000000000000000e+00" purity="7.3902767896652222e-01" nType="1"/>
              <Node pos="r" depth="4" NCoef="0" IVar="9" Cut="8.3728375244140625e+02" cType="1" res="-9.9000000000000000e+01" rms="0.0000000000000000e+00" purity="5.7302618026733398e-01" nType="0">
                <Node pos="l" depth="5" NCoef="0" IVar="-1" Cut="0.0000000000000000e+00" cType="1" res="-9.9000000000000000e+01" rms="0.0000000000000000e+00" purity="6.1581045389175415e-01" nType="1"/>
                <Node pos="r" depth="5" NCoef="0" IVar="-1" Cut="0.0000000000000000e+00" cType="1" res="-9.9000000000000000e+01" rms="0.0000000000000000e+00" purity="3.3273115754127502e-01" nType="-1"/>
              </Node>
            </Node>
            <Node pos="r" depth="3" NCoef="0" IVar="4" Cut="1.2462547302246094e+02" cType="0" res="-9.9000000000000000e+01" rms="0.0000000000000000e+00" purity="5.1900655031204224e-01" nType="0">
              <Node pos="l" depth="4" NCoef="0" IVar="-1" Cut="1.4959621429443359e+00" cType="1" res="-9.9000000000000000e+01" rms="0.0000000000000000e+00" purity="5.5178225040435791e-01" nType="1"/>
              <Node pos="r" depth="4" NCoef="0" IVar="4" Cut="7.1321189880371094e+01" cType="0" res="-9.9000000000000000e+01" rms="0.0000000000000000e+00" purity="4.9419274926185608e-01" nType="0">
                <Node pos="l" depth="5" NCoef="0" IVar="-1" Cut="0.0000000000000000e+00" cType="1" res="-9.9000000000000000e+01" rms="0.0000000000000000e+00" purity="5.1269119977951050e-01" nType="1"/>
                <Node pos="r" depth="5" NCoef="0" IVar="-1" Cut="0.0000000000000000e+00" cType="1" res="-9.9000000000000000e+01" rms="0.0000000000000000e+00" purity="4.5563119649887085e-01" nType="-1"/>
              </Node>
            </Node>
          </Node>
          <Node pos="r" depth="2" NCoef="0" IVar="1" Cut="2.0000000000000000e+00" cType="0" res="-9.9000000000000000e+01" rms="0.0000000000000000e+00" purity="3.7609767913818359e-01" nType="0">
            <Node pos="l" depth="3" NCoef="0" IVar="0" Cut="3.0000000000000000e+00" cType="0" res="-9.9000000000000000e+01" rms="0.0000000000000000e+00" purity="4.9674266576766968e-01" nType="0">
              <Node pos="l" depth="4" NCoef="0" IVar="19" Cut="2.0000000000000000e+00" cType="1" res="-9.9000000000000000e+01" rms="0.0000000000000000e+00" purity="5.2241140604019165e-01" nType="0">
                <Node pos="l" depth="5" NCoef="0" IVar="-1" Cut="0.0000000000000000e+00" cType="1" res="-9.9000000000000000e+01" rms="0.0000000000000000e+00" purity="5.9743899106979370e-01" nType="1"/>
                <Node pos="r" depth="5" NCoef="0" IVar="-1" Cut="0.0000000000000000e+00" cType="1" res="-9.9000000000000000e+01" rms="0.0000000000000000e+00" purity="4.8641154170036316e-01" nType="-1"/>
              </Node>
              <Node pos="r" depth="4" NCoef="0" IVar="-1" Cut="1.0605857849121094e+02" cType="0" res="-9.9000000000000000e+01" rms="0.0000000000000000e+00" purity="3.4926342964172363e-01" nType="-1"/>
            </Node>
            <Node pos="r" depth="3" NCoef="0" IVar="5" Cut="1.6475035095214844e+02" cType="0" res="-9.9000000000000000e+01" rms="0.0000000000000000e+00" purity="3.1005299091339111e-01" nType="0">
              <Node pos="l" depth="4" NCoef="0" IVar="0" Cut="3.0000000000000000e+00" cType="0" res="-9.9000000000000000e+01" rms="0.0000000000000000e+00" purity="4.3810614943504333e-01" nType="0">
                <Node pos="l" depth="5" NCoef="0" IVar="-1" Cut="0.0000000000000000e+00" cType="1" res="-9.9000000000000000e+01" rms="0.0000000000000000e+00" purity="5.0821655988693237e-01" nType="1"/>
                <Node pos="r" depth="5" NCoef="0" IVar="-1" Cut="0.0000000000000000e+00" cType="1" res="-9.9000000000000000e+01" rms="0.0000000000000000e+00" purity="2.3602566123008728e-01" nType="-1"/>
              </Node>
              <Node pos="r" depth="4" NCoef="0" IVar="-1" Cut="1.3109230041503906e+02" cType="0" res="-9.9000000000000000e+01" rms="0.0000000000000000e+00" purity="2.5594413280487061e-01" nType="-1"/>
            </Node>
          </Node>
        </Node>
      </Node>
    </BinaryTree>
    <BinaryTree type="DecisionTree" boostWeight="9.0248485431582759e-02" itree="8">
      <Node pos="s" depth="0" NCoef="0" IVar="1" Cut="3.0000000000000000e+00" cType="0" res="-9.9000000000000000e+01" rms="0.0000000000000000e+00" purity="5.1380133628845215e-01" nType="0">
        <Node pos="l" depth="1" NCoef="0" IVar="0" Cut="6.0000000000000000e+00" cType="0" res="-9.9000000000000000e+01" rms="0.0000000000000000e+00" purity="7.1488380432128906e-01" nType="0">
          <Node pos="l" depth="2" NCoef="0" IVar="-1" Cut="4.0000000000000000e+00" cType="0" res="-9.9000000000000000e+01" rms="0.0000000000000000e+00" purity="8.4906601905822754e-01" nType="1"/>
          <Node pos="r" depth="2" NCoef="0" IVar="1" Cut="4.0000000000000000e+00" cType="0" res="-9.9000000000000000e+01" rms="0.0000000000000000e+00" purity="6.1322492361068726e-01" nType="0">
            <Node pos="l" depth="3" NCoef="0" IVar="-1" Cut="6.8009185791015625e+01" cType="0" res="-9.9000000000000000e+01" rms="0.0000000000000000e+00" purity="8.3235603570938110e-01" nType="1"/>
            <Node pos="r" depth="3" NCoef="0" IVar="20" Cut="3.0000000000000000e+00" cType="0" res="-9.9000000000000000e+01" rms="0.0000000000000000e+00" purity="5.7804864645004272e-01" nType="0">
              <Node pos="l" depth="4" NCoef="0" IVar="-1" Cut="6.2728157043457031e+01" cType="0" res="-9.9000000000000000e+01" rms="0.0000000000000000e+00" purity="7.3353016376495361e-01" nType="1"/>
              <Node pos="r" depth="4" NCoef="0" IVar="5" Cut="1.1411470794677734e+02" cType="0" res="-9.9000000000000000e+01" rms="0.0000000000000000e+00" purity="5.5071640014648438e-01" nType="0">
                <Node pos="l" depth="5" NCoef="0" IVar="-1" Cut="0.0000000000000000e+00" cType="1" res="-9.9000000000000000e+01" rms="0.0000000000000000e+00" purity="6.1072683334350586e-01" nType="1"/>
                <Node pos="r" depth="5" NCoef="0" IVar="-1" Cut="0.0000000000000000e+00" cType="1" res="-9.9000000000000000e+01" rms="0.0000000000000000e+00" purity="4.8770064115524292e-01" nType="-1"/>
              </Node>
            </Node>
          </Node>
        </Node>
        <Node pos="r" depth="1" NCoef="0" IVar="0" Cut="3.0000000000000000e+00" cType="0" res="-9.9000000000000000e+01" rms="0.0000000000000000e+00" purity="4.7859755158424377e-01" nType="0">
          <Node pos="l" depth="2" NCoef="0" IVar="18" Cut="2.0000000000000000e+00" cType="0" res="-9.9000000000000000e+01" rms="0.0000000000000000e+00" purity="4.9420425295829773e-01" nType="0">
            <Node pos="l" depth="3" NCoef="0" IVar="0" Cut="7.0000000000000000e+00" cType="0" res="-9.9000000000000000e+01" rms="0.0000000000000000e+00" purity="5.2307122945785522e-01" nType="0">
              <Node pos="l" depth="4" NCoef="0" IVar="7" Cut="3.0000000000000000e+00" cType="1" res="-9.9000000000000000e+01" rms="0.0000000000000000e+00" purity="6.7105793952941895e-01" nType="0">
                <Node pos="l" depth="5" NCoef="0" IVar="-1" Cut="0.0000000000000000e+00" cType="1" res="-9.9000000000000000e+01" rms="0.0000000000000000e+00" purity="7.0586258172988892e-01" nType="1"/>
                <Node pos="r" depth="5" NCoef="0" IVar="-1" Cut="0.0000000000000000e+00" cType="1" res="-9.9000000000000000e+01" rms="0.0000000000000000e+00" purity="4.8502701520919800e-01" nType="-1"/>
              </Node>
              <Node pos="r" depth="4" NCoef="0" IVar="16" Cut="1.0472472906112671e+00" cType="1" res="-9.9000000000000000e+01" rms="0.0000000000000000e+00" purity="5.0728088617324829e-01" nType="0">
                <Node pos="l" depth="5" NCoef="0" IVar="-1" Cut="0.0000000000000000e+00" cType="1" res="-9.9000000000000000e+01" rms="0.0000000000000000e+00" purity="5.6763863563537598e-01" nType="1"/>
                <Node pos="r" depth="5" NCoef="0" IVar="-1" Cut="0.0000000000000000e+00" cType="1" res="-9.9000000000000000e+01" rms="0.0000000000000000e+00" purity="4.9238729476928711e-01" nType="-1"/>
              </Node>
            </Node>
            <Node pos="r" depth="3" NCoef="0" IVar="5" Cut="8.6954917907714844e+01" cType="0" res="-9.9000000000000000e+01" rms="0.0000000000000000e+00" purity="4.2142483592033386e-01" nType="0">
              <Node pos="l" depth="4" NCoef="0" IVar="1" Cut="2.0000000000000000e+00" cType="0" res="-9.9000000000000000e+01" rms="0.0000000000000000e+00" purity="4.7147828340530396e-01" nType="0">
                <Node pos="l" depth="5" NCoef="0" IVar="-1" Cut="0.0000000000000000e+00" cType="1" res="-9.9000000000000000e+01" rms="0.0000000000000000e+00" purity="5.9372448921203613e-01" nType="1"/>
                <Node pos="r" depth="5" NCoef="0" IVar="-1" Cut="0.0000000000000000e+00" cType="1" res="-9.9000000000000000e+01" rms="0.0000000000000000e+00" purity="4.4501736760139465e-01" nType="-1"/>
              </Node>
              <Node pos="r" depth="4" NCoef="0" IVar="-1" Cut="4.0000000000000000e+00" cType="0" res="-9.9000000000000000e+01" rms="0.0000000000000000e+00" purity="3.3424541354179382e-01" nType="-1"/>
            </Node>
          </Node>
          <Node pos="r" depth="2" NCoef="0" IVar="1" Cut="2.0000000000000000e+00" cType="0" res="-9.9000000000000000e+01" rms="0.0000000000000000e+00" purity="2.4147449433803558e-01" nType="0">
            <Node pos="l" depth="3" NCoef="0" IVar="4" Cut="1.0605857849121094e+02" cType="0" res="-9.9000000000000000e+01" rms="0.0000000000000000e+00" purity="3.7485957145690918e-01" nType="0">
              <Node pos="l" depth="4" NCoef="0" IVar="21" Cut="0.0000000000000000e+00" cType="1" res="-9.9000000000000000e+01" rms="0.0000000000000000e+00" purity="4.5150512456893921e-01" nType="0">
                <Node pos="l" depth="5" NCoef="0" IVar="-1" Cut="0.0000000000000000e+00" cType="1" res="-9.9000000000000000e+01" rms="0.0000000000000000e+00" purity="5.2729654312133789e-01" nType="1"/>
                <Node pos="r" depth="5" NCoef="0" IVar="-1" Cut="0.0000000000000000e+00" cType="1" res="-9.9000000000000000e+01" rms="0.0000000000000000e+00" purity="3.6277541518211365e-01" nType="-1"/>
              </Node>
              <Node pos="r" depth="4" NCoef="0" IVar="-1" Cut="2.5344676208496094e+02" cType="0" res="-9.9000000000000000e+01" rms="0.0000000000000000e+00" purity="2.5073763728141785e-01" nType="-1"/>
            </Node>
            <Node pos="r" depth="3" NCoef="0" IVar="19" Cut="1.0000000000000000e+00" cType="1" res="-9.9000000000000000e+01" rms="0.0000000000000000e+00" purity="1.9972737133502960e-01" nType="0">
              <Node pos="l" depth="4" NCoef="0" IVar="7" Cut="3.0000000000000000e+00" cType="0" res="-9.9000000000000000e+01" rms="0.0000000000000000e+00" purity="3.5201686620712280e-01" nType="0">
                <Node pos="l" depth="5" NCoef="0" IVar="-1" Cut="0.0000000000000000e+00" cType="1" res="-9.9000000000000000e+01" rms="0.0000000000000000e+00" purity="5.6428951025009155e-01" nType="1"/>
                <Node pos="r" depth="5" NCoef="0" IVar="-1" Cut="0.0000000000000000e+00" cType="1" res="-9.9000000000000000e+01" rms="0.0000000000000000e+00" purity="1.9074146449565887e-01" nType="-1"/>
              </Node>
              <Node pos="r" depth="4" NCoef="0" IVar="-1" Cut="1.3762600708007812e+02" cType="0" res="-9.9000000000000000e+01" rms="0.0000000000000000e+00" purity="1.7357766628265381e-01" nType="-1"/>
            </Node>
          </Node>
        </Node>
      </Node>
    </BinaryTree>
    <BinaryTree type="DecisionTree" boostWeight="8.5254755559249495e-02" itree="9">
      <Node pos="s" depth="0" NCoef="0" IVar="18" Cut="4.0000000000000000e+00" cType="0" res="-9.9000000000000000e+01" rms="0.0000000000000000e+00" purity="5.2635037899017334e-01" nType="0">
        <Node pos="l" depth="1" NCoef="0" IVar="1" Cut="3.0000000000000000e+00" cType="0" res="-9.9000000000000000e+01" rms="0.0000000000000000e+00" purity="7.5833475589752197e-01" nType="0">
          <Node pos="l" depth="2" NCoef="0" IVar="-1" Cut="6.0000000000000000e+00" cType="0" res="-9.9000000000000000e+01" rms="0.0000000000000000e+00" purity="8.4639102220535278e-01" nType="1"/>
          <Node pos="r" depth="2" NCoef="0" IVar="0" Cut="7.0000000000000000e+00" cType="0" res="-9.9000000000000000e+01" rms="0.0000000000000000e+00" purity="6.4390242099761963e-01" nType="0">
            <Node pos="l" depth="3" NCoef="0" IVar="-1" Cut="2.8419830799102783e+00" cType="1" res="-9.9000000000000000e+01" rms="0.0000000000000000e+00" purity="7.5578761100769043e-01" nType="1"/>
            <Node pos="r" depth="3" NCoef="0" IVar="1" Cut="2.0000000000000000e+00" cType="0" res="-9.9000000000000000e+01" rms="0.0000000000000000e+00" purity="5.9517115354537964e-01" nType="0">
              <Node pos="l" depth="4" NCoef="0" IVar="-1" Cut="5.9586662054061890e-01" cType="1" res="-9.9000000000000000e+01" rms="0.0000000000000000e+00" purity="6.3738995790481567e-01" nType="1"/>
              <Node pos="r" depth="4" NCoef="0" IVar="2" Cut="1.1128248596191406e+02" cType="0" res="-9.9000000000000000e+01" rms="0.0000000000000000e+00" purity="4.9216398596763611e-01" nType="0">
                <Node pos="l" depth="5" NCoef="0" IVar="-1" Cut="0.0000000000000000e+00" cType="1" res="-9.9000000000000000e+01" rms="0.0000000000000000e+00" purity="5.9162461757659912e-01" nType="1"/>
                <Node pos="r" depth="5" NCoef="0" IVar="-1" Cut="0.0000000000000000e+00" cType="1" res="-9.9000000000000000e+01" rms="0.0000000000000000e+00" purity="3.8474318385124207e-01" nType="-1"/>
              </Node>
            </Node>
          </Node>
        </Node>
        <Node pos="r" depth="1" NCoef="0" IVar="0" Cut="3.0000000000000000e+00" cType="0" res="-9.9000000000000000e+01" rms="0.0000000000000000e+00" purity="5.0169873237609863e-01" nType="0">
          <Node pos="l" depth="2" NCoef="0" IVar="18" Cut="2.0000000000000000e+00" cType="0" res="-9.9000000000000000e+01" rms="0.0000000000000000e+00" purity="5.1676201820373535e-01" nType="0">
            <Node pos="l" depth="3" NCoef="0" IVar="-1" Cut="7.0000000000000000e+00" cType="0" res="-9.9000000000000000e+01" rms="0.0000000000000000e+00" purity="5.4450505971908569e-01" nType="1"/>
            <Node pos="r" depth="3" NCoef="0" IVar="0" Cut="4.0000000000000000e+00" cType="0" res="-9.9000000000000000e+01" rms="0.0000000000000000e+00" purity="4.4101729989051819e-01" nType="0">
              <Node pos="l" depth="4" NCoef="0" IVar="19" Cut="1.0000000000000000e+00" cType="1" res="-9.9000000000000000e+01" rms="0.0000000000000000e+00" purity="4.8890787363052368e-01" nType="0">
                <Node pos="l" depth="5" NCoef="0" IVar="-1" Cut="0.0000000000000000e+00" cType="1" res="-9.9000000000000000e+01" rms="0.0000000000000000e+00" purity="6.0754132270812988e-01" nType="1"/>
                <Node pos="r" depth="5" NCoef="0" IVar="-1" Cut="0.0000000000000000e+00" cType="1" res="-9.9000000000000000e+01" rms="0.0000000000000000e+00" purity="4.6935245394706726e-01" nType="-1"/>
              </Node>
              <Node pos="r" depth="4" NCoef="0" IVar="-1" Cut="8.6387199401855469e+01" cType="0" res="-9.9000000000000000e+01" rms="0.0000000000000000e+00" purity="3.5763347148895264e-01" nType="-1"/>
            </Node>
          </Node>
          <Node pos="r" depth="2" NCoef="0" IVar="1" Cut="2.0000000000000000e+00" cType="0" res="-9.9000000000000000e+01" rms="0.0000000000000000e+00" purity="2.5813049077987671e-01" nType="0">
            <Node pos="l" depth="3" NCoef="0" IVar="4" Cut="1.0605857849121094e+02" cType="0" res="-9.9000000000000000e+01" rms="0.0000000000000000e+00" purity="3.9138001203536987e-01" nType="0">
              <Node pos="l" depth="4" NCoef="0" IVar="5" Cut="1.8954113769531250e+02" cType="0" res="-9.9000000000000000e+01" rms="0.0000000000000000e+00" purity="4.6255806088447571e-01" nType="0">
                <Node pos="l" depth="5" NCoef="0" IVar="-1" Cut="0.0000000000000000e+00" cType="1" res="-9.9000000000000000e+01" rms="0.0000000000000000e+00" purity="5.6508600711822510e-01" nType="1"/>
                <Node pos="r" depth="5" NCoef="0" IVar="-1" Cut="0.0000000000000000e+00" cType="1" res="-9.9000000000000000e+01" rms="0.0000000000000000e+00" purity="4.1915723681449890e-01" nType="-1"/>
              </Node>
              <Node pos="r" depth="4" NCoef="0" IVar="13" Cut="2.5344676208496094e+02" cType="0" res="-9.9000000000000000e+01" rms="0.0000000000000000e+00" purity="2.7650696039199829e-01" nType="0">
                <Node pos="l" depth="5" NCoef="0" IVar="-1" Cut="0.0000000000000000e+00" cType="1" res="-9.9000000000000000e+01" rms="0.0000000000000000e+00" purity="5.0801062583923340e-01" nType="1"/>
                <Node pos="r" depth="5" NCoef="0" IVar="-1" Cut="0.0000000000000000e+00" cType="1" res="-9.9000000000000000e+01" rms="0.0000000000000000e+00" purity="1.9712819159030914e-01" nType="-1"/>
              </Node>
            </Node>
            <Node pos="r" depth="3" NCoef="0" IVar="-1" Cut="1.7441116333007812e+02" cType="0" res="-9.9000000000000000e+01" rms="0.0000000000000000e+00" purity="2.1127644181251526e-01" nType="-1"/>
          </Node>
        </Node>
      </Node>
    </BinaryTree>
    <BinaryTree type="DecisionTree" boostWeight="8.3147945781383098e-02" itree="10">
      <Node pos="s" depth="0" NCoef="0" IVar="18" Cut="4.0000000000000000e+00" cType="0" res="-9.9000000000000000e+01" rms="0.0000000000000000e+00" purity="5.1446861028671265e-01" nType="0">
        <Node pos="l" depth="1" NCoef="0" IVar="1" Cut="3.0000000000000000e+00" cType="0" res="-9.9000000000000000e+01" rms="0.0000000000000000e+00" purity="7.4406898021697998e-01" nType="0">
          <Node pos="l" depth="2" NCoef="0" IVar="-1" Cut="6.0000000000000000e+00" cType="0" res="-9.9000000000000000e+01" rms="0.0000000000000000e+00" purity="8.3462315797805786e-01" nType="1"/>
          <Node pos="r" depth="2" NCoef="0" IVar="0" Cut="7.0000000000000000e+00" cType="0" res="-9.9000000000000000e+01" rms="0.0000000000000000e+00" purity="6.2858337163925171e-01" nType="0">
            <Node pos="l" depth="3" NCoef="0" IVar="-1" Cut="2.8419830799102783e+00" cType="1" res="-9.9000000000000000e+01" rms="0.0000000000000000e+00" purity="7.3898822069168091e-01" nType="1"/>
            <Node pos="r" depth="3" NCoef="0" IVar="17" Cut="5.9687262773513794e-01" cType="1" res="-9.9000000000000000e+01" rms="0.0000000000000000e+00" purity="5.8120334148406982e-01" nType="0">
              <Node pos="l" depth="4" NCoef="0" IVar="-1" Cut="0.0000000000000000e+00" cType="1" res="-9.9000000000000000e+01" rms="0.0000000000000000e+00" purity="6.6245770454406738e-01" nType="1"/>
              <Node pos="r" depth="4" NCoef="0" IVar="12" Cut="8.1605590820312500e+01" cType="0" res="-9.9000000000000000e+01" rms="0.0000000000000000e+00" purity="5.4368364810943604e-01" nType="0">
                <Node pos="l" depth="5" NCoef="0" IVar="-1" Cut="0.0000000000000000e+00" cType="1" res="-9.9000000000000000e+01" rms="0.0000000000000000e+00" purity="5.6816434860229492e-01" nType="1"/>
                <Node pos="r" depth="5" NCoef="0" IVar="-1" Cut="0.0000000000000000e+00" cType="1" res="-9.9000000000000000e+01" rms="0.0000000000000000e+00" purity="4.1181775927543640e-01" nType="-1"/>
              </Node>
            </Node>
          </Node>
        </Node>
        <Node pos="r" depth="1" NCoef="0" IVar="0" Cut="3.0000000000000000e+00" cType="0" res="-9.9000000000000000e+01" rms="0.0000000000000000e+00" purity="4.9060848355293274e-01" nType="0">
          <Node pos="l" depth="2" NCoef="0" IVar="0" Cut="5.0000000000000000e+00" cType="0" res="-9.9000000000000000e+01" rms="0.0000000000000000e+00" purity="5.0385570526123047e-01" nType="0">
            <Node pos="l" depth="3" NCoef="0" IVar="-1" Cut="3.0000000000000000e+00" cType="0" res="-9.9000000000000000e+01" rms="0.0000000000000000e+00" purity="5.5014765262603760e-01" nType="1"/>
            <Node pos="r" depth="3" NCoef="0" IVar="7" Cut="3.0000000000000000e+00" cType="0" res="-9.9000000000000000e+01" rms="0.0000000000000000e+00" purity="4.6825474500656128e-01" nType="0">
              <Node pos="l" depth="4" NCoef="0" IVar="-1" Cut="1.0961981201171875e+02" cType="0" res="-9.9000000000000000e+01" rms="0.0000000000000000e+00" purity="5.3655439615249634e-01" nType="1"/>
              <Node pos="r" depth="4" NCoef="0" IVar="-1" Cut="8.6954917907714844e+01" cType="0" res="-9.9000000000000000e+01" rms="0.0000000000000000e+00" purity="4.3220764398574829e-01" nType="-1"/>
            </Node>
          </Node>
          <Node pos="r" depth="2" NCoef="0" IVar="2" Cut="1.3411924743652344e+02" cType="0" res="-9.9000000000000000e+01" rms="0.0000000000000000e+00" purity="2.7180317044258118e-01" nType="0">
            <Node pos="l" depth="3" NCoef="0" IVar="10" Cut="2.3929517269134521e+00" cType="1" res="-9.9000000000000000e+01" rms="0.0000000000000000e+00" purity="3.7302982807159424e-01" nType="0">
              <Node pos="l" depth="4" NCoef="0" IVar="14" Cut="2.5807803344726562e+02" cType="1" res="-9.9000000000000000e+01" rms="0.0000000000000000e+00" purity="4.5979017019271851e-01" nType="0">
                <Node pos="l" depth="5" NCoef="0" IVar="-1" Cut="0.0000000000000000e+00" cType="1" res="-9.9000000000000000e+01" rms="0.0000000000000000e+00" purity="5.9189265966415405e-01" nType="1"/>
                <Node pos="r" depth="5" NCoef="0" IVar="-1" Cut="0.0000000000000000e+00" cType="1" res="-9.9000000000000000e+01" rms="0.0000000000000000e+00" purity="3.7342825531959534e-01" nType="-1"/>
              </Node>
              <Node pos="r" depth="4" NCoef="0" IVar="-1" Cut="2.9984161853790283e+00" cType="0" res="-9.9000000000000000e+01" rms="0.0000000000000000e+00" purity="2.6961022615432739e-01" nType="-1"/>
            </Node>
            <Node pos="r" depth="3" NCoef="0" IVar="1" Cut="2.0000000000000000e+00" cType="0" res="-9.9000000000000000e+01" rms="0.0000000000000000e+00" purity="2.1361343562602997e-01" nType="0">
              <Node pos="l" depth="4" NCoef="0" IVar="3" Cut="1.1423509979248047e+02" cType="0" res="-9.9000000000000000e+01" rms="0.0000000000000000e+00" purity="3.6617946624755859e-01" nType="0">
                <Node pos="l" depth="5" NCoef="0" IVar="-1" Cut="0.0000000000000000e+00" cType="1" res="-9.9000000000000000e+01" rms="0.0000000000000000e+00" purity="5.2942514419555664e-01" nType="1"/>
                <Node pos="r" depth="5" NCoef="0" IVar="-1" Cut="0.0000000000000000e+00" cType="1" res="-9.9000000000000000e+01" rms="0.0000000000000000e+00" purity="2.6602897047996521e-01" nType="-1"/>
              </Node>
              <Node pos="r" depth="4" NCoef="0" IVar="-1" Cut="4.1230377197265625e+02" cType="0" res="-9.9000000000000000e+01" rms="0.0000000000000000e+00" purity="1.6490592062473297e-01" nType="-1"/>
            </Node>
          </Node>
        </Node>
      </Node>
    </BinaryTree>
    <BinaryTree type="DecisionTree" boostWeight="7.9237353766067553e-02" itree="11">
      <Node pos="s" depth="0" NCoef="0" IVar="1" Cut="3.0000000000000000e+00" cType="0" res="-9.9000000000000000e+01" rms="0.0000000000000000e+00" purity="5.0775527954101562e-01" nType="0">
        <Node pos="l" depth="1" NCoef="0" IVar="0" Cut="6.0000000000000000e+00" cType="0" res="-9.9000000000000000e+01" rms="0.0000000000000000e+00" purity="6.8057131767272949e-01" nType="0">
          <Node pos="l" depth="2" NCoef="0" IVar="-1" Cut="4.0000000000000000e+00" cType="0" res="-9.9000000000000000e+01" rms="0.0000000000000000e+00" purity="8.1140249967575073e-01" nType="1"/>
          <Node pos="r" depth="2" NCoef="0" IVar="1" Cut="4.0000000000000000e+00" cType="0" res="-9.9000000000000000e+01" rms="0.0000000000000000e+00" purity="5.8920240402221680e-01" nType="0">
            <Node pos="l" depth="3" NCoef="0" IVar="-1" Cut="1.4952353239059448e+00" cType="1" res="-9.9000000000000000e+01" rms="0.0000000000000000e+00" purity="8.0166280269622803e-01" nType="1"/>
            <Node pos="r" depth="3" NCoef="0" IVar="4" Cut="9.5502441406250000e+01" cType="0" res="-9.9000000000000000e+01" rms="0.0000000000000000e+00" purity="5.5729156732559204e-01" nType="0">
              <Node pos="l" depth="4" NCoef="0" IVar="-1" Cut="1.2728928375244141e+02" cType="0" res="-9.9000000000000000e+01" rms="0.0000000000000000e+00" purity="6.0461455583572388e-01" nType="1"/>
              <Node pos="r" depth="4" NCoef="0" IVar="18" Cut="4.0000000000000000e+00" cType="0" res="-9.9000000000000000e+01" rms="0.0000000000000000e+00" purity="4.8098930716514587e-01" nType="0">
                <Node pos="l" depth="5" NCoef="0" IVar="-1" Cut="0.0000000000000000e+00" cType="1" res="-9.9000000000000000e+01" rms="0.0000000000000000e+00" purity="6.4019042253494263e-01" nType="1"/>
                <Node pos="r" depth="5" NCoef="0" IVar="-1" Cut="0.0000000000000000e+00" cType="1" res="-9.9000000000000000e+01" rms="0.0000000000000000e+00" purity="4.5348319411277771e-01" nType="-1"/>
              </Node>
            </Node>
          </Node>
        </Node>
        <Node pos="r" depth="1" NCoef="0" IVar="0" Cut="3.0000000000000000e+00" cType="0" res="-9.9000000000000000e+01" rms="0.0000000000000000e+00" purity="4.7883644700050354e-01" nType="0">
          <Node pos="l" depth="2" NCoef="0" IVar="0" Cut="7.0000000000000000e+00" cType="0" res="-9.9000000000000000e+01" rms="0.0000000000000000e+00" purity="4.9130770564079285e-01" nType="0">
            <Node pos="l" depth="3" NCoef="0" IVar="1" Cut="2.0000000000000000e+00" cType="0" res="-9.9000000000000000e+01" rms="0.0000000000000000e+00" purity="6.1108607053756714e-01" nType="0">
              <Node pos="l" depth="4" NCoef="0" IVar="13" Cut="5.4356134033203125e+02" cType="1" res="-9.9000000000000000e+01" rms="0.0000000000000000e+00" purity="6.7179226875305176e-01" nType="0">
                <Node pos="l" depth="5" NCoef="0" IVar="-1" Cut="0.0000000000000000e+00" cType="1" res="-9.9000000000000000e+01" rms="0.0000000000000000e+00" purity="6.8658477067947388e-01" nType="1"/>
                <Node pos="r" depth="5" NCoef="0" IVar="-1" Cut="0.0000000000000000e+00" cType="1" res="-9.9000000000000000e+01" rms="0.0000000000000000e+00" purity="3.9014810323715210e-01" nType="-1"/>
              </Node>
              <Node pos="r" depth="4" NCoef="0" IVar="5" Cut="1.6206867980957031e+02" cType="0" res="-9.9000000000000000e+01" rms="0.0000000000000000e+00" purity="5.2695775032043457e-01" nType="0">
                <Node pos="l" depth="5" NCoef="0" IVar="-1" Cut="0.0000000000000000e+00" cType="1" res="-9.9000000000000000e+01" rms="0.0000000000000000e+00" purity="6.4103543758392334e-01" nType="1"/>
                <Node pos="r" depth="5" NCoef="0" IVar="-1" Cut="0.0000000000000000e+00" cType="1" res="-9.9000000000000000e+01" rms="0.0000000000000000e+00" purity="4.6332943439483643e-01" nType="-1"/>
              </Node>
            </Node>
            <Node pos="r" depth="3" NCoef="0" IVar="4" Cut="1.2462547302246094e+02" cType="0" res="-9.9000000000000000e+01" rms="0.0000000000000000e+00" purity="4.8161187767982483e-01" nType="0">
              <Node pos="l" depth="4" NCoef="0" IVar="2" Cut="1.4823387145996094e+02" cType="0" res="-9.9000000000000000e+01" rms="0.0000000000000000e+00" purity="5.2031683921813965e-01" nType="0">
                <Node pos="l" depth="5" NCoef="0" IVar="-1" Cut="0.0000000000000000e+00" cType="1" res="-9.9000000000000000e+01" rms="0.0000000000000000e+00" purity="5.6040537357330322e-01" nType="1"/>
                <Node pos="r" depth="5" NCoef="0" IVar="-1" Cut="0.0000000000000000e+00" cType="1" res="-9.9000000000000000e+01" rms="0.0000000000000000e+00" purity="4.8945924639701843e-01" nType="-1"/>
              </Node>
              <Node pos="r" depth="4" NCoef="0" IVar="-1" Cut="4.0000000000000000e+00" cType="0" res="-9.9000000000000000e+01" rms="0.0000000000000000e+00" purity="4.5301729440689087e-01" nType="-1"/>
            </Node>
          </Node>
          <Node pos="r" depth="2" NCoef="0" IVar="2" Cut="1.3411924743652344e+02" cType="0" res="-9.9000000000000000e+01" rms="0.0000000000000000e+00" purity="2.7583491802215576e-01" nType="0">
            <Node pos="l" depth="3" NCoef="0" IVar="10" Cut="2.3929517269134521e+00" cType="1" res="-9.9000000000000000e+01" rms="0.0000000000000000e+00" purity="3.7364023923873901e-01" nType="0">
              <Node pos="l" depth="4" NCoef="0" IVar="21" Cut="0.0000000000000000e+00" cType="1" res="-9.9000000000000000e+01" rms="0.0000000000000000e+00" purity="4.5276853442192078e-01" nType="0">
                <Node pos="l" depth="5" NCoef="0" IVar="-1" Cut="0.0000000000000000e+00" cType="1" res="-9.9000000000000000e+01" rms="0.0000000000000000e+00" purity="5.6476056575775146e-01" nType="1"/>
                <Node pos="r" depth="5" NCoef="0" IVar="-1" Cut="0.0000000000000000e+00" cType="1" res="-9.9000000000000000e+01" rms="0.0000000000000000e+00" purity="3.6279577016830444e-01" nType="-1"/>
              </Node>
              <Node pos="r" depth="4" NCoef="0" IVar="-1" Cut="2.9984161853790283e+00" cType="0" res="-9.9000000000000000e+01" rms="0.0000000000000000e+00" purity="2.7767211198806763e-01" nType="-1"/>
            </Node>
            <Node pos="r" depth="3" NCoef="0" IVar="11" Cut="4.7177496337890625e+02" cType="0" res="-9.9000000000000000e+01" rms="0.0000000000000000e+00" purity="2.1854472160339355e-01" nType="0">
              <Node pos="l" depth="4" NCoef="0" IVar="-1" Cut="0.0000000000000000e+00" cType="1" res="-9.9000000000000000e+01" rms="0.0000000000000000e+00" purity="5.1969379186630249e-01" nType="1"/>
              <Node pos="r" depth="4" NCoef="0" IVar="-1" Cut="2.0000000000000000e+00" cType="0" res="-9.9000000000000000e+01" rms="0.0000000000000000e+00" purity="1.9656813144683838e-01" nType="-1"/>
            </Node>
          </Node>
        </Node>
      </Node>
    </BinaryTree>
    <BinaryTree type="DecisionTree" boostWeight="8.3808477392316699e-02" itree="12">
      <Node pos="s" depth="0" NCoef="0" IVar="18" Cut="4.0000000000000000e+00" cType="0" res="-9.9000000000000000e+01" rms="0.0000000000000000e+00" purity="5.1771008968353271e-01" nType="0">
        <Node pos="l" depth="1" NCoef="0" IVar="1" Cut="3.0000000000000000e+00" cType="0" res="-9.9000000000000000e+01" rms="0.0000000000000000e+00" purity="7.2562402486801147e-01" nType="0">
          <Node pos="l" depth="2" NCoef="0" IVar="-1" Cut="6.0000000000000000e+00" cType="0" res="-9.9000000000000000e+01" rms="0.0000000000000000e+00" purity="8.1039160490036011e-01" nType="1"/>
          <Node pos="r" depth="2" NCoef="0" IVar="0" Cut="7.0000000000000000e+00" cType="0" res="-9.9000000000000000e+01" rms="0.0000000000000000e+00" purity="6.2408322095870972e-01" nType="0">
            <Node pos="l" depth="3" NCoef="0" IVar="-1" Cut="2.8419830799102783e+00" cType="1" res="-9.9000000000000000e+01" rms="0.0000000000000000e+00" purity="7.1628695726394653e-01" nType="1"/>
            <Node pos="r" depth="3" NCoef="0" IVar="1" Cut="2.0000000000000000e+00" cType="0" res="-9.9000000000000000e+01" rms="0.0000000000000000e+00" purity="5.8574765920639038e-01" nType="0">
              <Node pos="l" depth="4" NCoef="0" IVar="-1" Cut="1.3033369445800781e+02" cType="0" res="-9.9000000000000000e+01" rms="0.0000000000000000e+00" purity="6.2184178829193115e-01" nType="1"/>
              <Node pos="r" depth="4" NCoef="0" IVar="15" Cut="2.0000000000000000e+00" cType="1" res="-9.9000000000000000e+01" rms="0.0000000000000000e+00" purity="4.9835145473480225e-01" nType="0">
                <Node pos="l" depth="5" NCoef="0" IVar="-1" Cut="0.0000000000000000e+00" cType="1" res="-9.9000000000000000e+01" rms="0.0000000000000000e+00" purity="5.6616520881652832e-01" nType="1"/>
                <Node pos="r" depth="5" NCoef="0" IVar="-1" Cut="0.0000000000000000e+00" cType="1" res="-9.9000000000000000e+01" rms="0.0000000000000000e+00" purity="3.7190282344818115e-01" nType="-1"/>
              </Node>
            </Node>
          </Node>
        </Node>
        <Node pos="r" depth="1" NCoef="0" IVar="0" Cut="3.0000000000000000e+00" cType="0" res="-9.9000000000000000e+01" rms="0.0000000000000000e+00" purity="4.9668502807617188e-01" nType="0">
          <Node pos="l" depth="2" NCoef="0" IVar="1" Cut="2.0000000000000000e+00" cType="0" res="-9.9000000000000000e+01" rms="0.0000000000000000e+00" purity="5.0861042737960815e-01" nType="0">
            <Node pos="l" depth="3" NCoef="0" IVar="19" Cut="2.0000000000000000e+00" cType="1" res="-9.9000000000000000e+01" rms="0.0000000000000000e+00" purity="5.4097765684127808e-01" nType="0">
              <Node pos="l" depth="4" NCoef="0" IVar="-1" Cut="2.0000000000000000e+00" cType="0" res="-9.9000000000000000e+01" rms="0.0000000000000000e+00" purity="6.4863514900207520e-01" nType="1"/>
              <Node pos="r" depth="4" NCoef="0" IVar="0" Cut="6.0000000000000000e+00" cType="0" res="-9.9000000000000000e+01" rms="0.0000000000000000e+00" purity="5.1378017663955688e-01" nType="0">
                <Node pos="l" depth="5" NCoef="0" IVar="-1" Cut="0.0000000000000000e+00" cType="1" res="-9.9000000000000000e+01" rms="0.0000000000000000e+00" purity="6.0206389427185059e-01" nType="1"/>
                <Node pos="r" depth="5" NCoef="0" IVar="-1" Cut="0.0000000000000000e+00" cType="1" res="-9.9000000000000000e+01" rms="0.0000000000000000e+00" purity="4.8667958378791809e-01" nType="-1"/>
              </Node>
            </Node>
            <Node pos="r" depth="3" NCoef="0" IVar="5" Cut="8.6954917907714844e+01" cType="0" res="-9.9000000000000000e+01" rms="0.0000000000000000e+00" purity="4.7343933582305908e-01" nType="0">
              <Node pos="l" depth="4" NCoef="0" IVar="0" Cut="4.0000000000000000e+00" cType="0" res="-9.9000000000000000e+01" rms="0.0000000000000000e+00" purity="5.1227360963821411e-01" nType="0">
                <Node pos="l" depth="5" NCoef="0" IVar="-1" Cut="0.0000000000000000e+00" cType="1" res="-9.9000000000000000e+01" rms="0.0000000000000000e+00" purity="5.3465712070465088e-01" nType="1"/>
                <Node pos="r" depth="5" NCoef="0" IVar="-1" Cut="0.0000000000000000e+00" cType="1" res="-9.9000000000000000e+01" rms="0.0000000000000000e+00" purity="4.5026531815528870e-01" nType="-1"/>
              </Node>
              <Node pos="r" depth="4" NCoef="0" IVar="2" Cut="1.1189234161376953e+02" cType="0" res="-9.9000000000000000e+01" rms="0.0000000000000000e+00" purity="3.9936307072639465e-01" nType="0">
                <Node pos="l" depth="5" NCoef="0" IVar="-1" Cut="0.0000000000000000e+00" cType="1" res="-9.9000000000000000e+01" rms="0.0000000000000000e+00" purity="5.0172454118728638e-01" nType="1"/>
                <Node pos="r" depth="5" NCoef="0" IVar="-1" Cut="0.0000000000000000e+00" cType="1" res="-9.9000000000000000e+01" rms="0.0000000000000000e+00" purity="3.4877979755401611e-01" nType="-1"/>
              </Node>
            </Node>
          </Node>
          <Node pos="r" depth="2" NCoef="0" IVar="1" Cut="2.0000000000000000e+00" cType="0" res="-9.9000000000000000e+01" rms="0.0000000000000000e+00" purity="2.9218858480453491e-01" nType="0">
            <Node pos="l" depth="3" NCoef="0" IVar="4" Cut="1.0605857849121094e+02" cType="0" res="-9.9000000000000000e+01" rms="0.0000000000000000e+00" purity="4.1648462414741516e-01" nType="0">
              <Node pos="l" depth="4" NCoef="0" IVar="16" Cut="2.5433807373046875e+00" cType="1" res="-9.9000000000000000e+01" rms="0.0000000000000000e+00" purity="4.8276972770690918e-01" nType="0">
                <Node pos="l" depth="5" NCoef="0" IVar="-1" Cut="0.0000000000000000e+00" cType="1" res="-9.9000000000000000e+01" rms="0.0000000000000000e+00" purity="5.3850561380386353e-01" nType="1"/>
                <Node pos="r" depth="5" NCoef="0" IVar="-1" Cut="0.0000000000000000e+00" cType="1" res="-9.9000000000000000e+01" rms="0.0000000000000000e+00" purity="4.0573677420616150e-01" nType="-1"/>
              </Node>
              <Node pos="r" depth="4" NCoef="0" IVar="-1" Cut="2.5344676208496094e+02" cType="0" res="-9.9000000000000000e+01" rms="0.0000000000000000e+00" purity="3.0558800697326660e-01" nType="-1"/>
            </Node>
            <Node pos="r" depth="3" NCoef="0" IVar="7" Cut="3.0000000000000000e+00" cType="0" res="-9.9000000000000000e+01" rms="0.0000000000000000e+00" purity="2.4641561508178711e-01" nType="0">
              <Node pos="l" depth="4" NCoef="0" IVar="19" Cut="1.0000000000000000e+00" cType="1" res="-9.9000000000000000e+01" rms="0.0000000000000000e+00" purity="3.1778985261917114e-01" nType="0">
                <Node pos="l" depth="5" NCoef="0" IVar="-1" Cut="0.0000000000000000e+00" cType="1" res="-9.9000000000000000e+01" rms="0.0000000000000000e+00" purity="5.6789040565490723e-01" nType="1"/>
                <Node pos="r" depth="5" NCoef="0" IVar="-1" Cut="0.0000000000000000e+00" cType="1" res="-9.9000000000000000e+01" rms="0.0000000000000000e+00" purity="2.7445405721664429e-01" nType="-1"/>
              </Node>
              <Node pos="r" depth="4" NCoef="0" IVar="-1" Cut="2.3932149410247803e+00" cType="1" res="-9.9000000000000000e+01" rms="0.0000000000000000e+00" purity="1.7941376566886902e-01" nType="-1"/>
            </Node>
          </Node>
        </Node>
      </Node>
    </BinaryTree>
    <BinaryTree type="DecisionTree" boostWeight="6.6170500978136107e-02" itree="13">
      <Node pos="s" depth="0" NCoef="0" IVar="1" Cut="3.0000000000000000e+00" cType="0" res="-9.9000000000000000e+01" rms="0.0000000000000000e+00" purity="5.1767480373382568e-01" nType="0">
        <Node pos="l" depth="1" NCoef="0" IVar="0" Cut="6.0000000000000000e+00" cType="0" res="-9.9000000000000000e+01" rms="0.0000000000000000e+00" purity="6.7470383644104004e-01" nType="0">
          <Node pos="l" depth="2" NCoef="0" IVar="18" Cut="4.0000000000000000e+00" cType="0" res="-9.9000000000000000e+01" rms="0.0000000000000000e+00" purity="7.8446161746978760e-01" nType="0">
            <Node pos="l" depth="3" NCoef="0" IVar="-1" Cut="5.2841644287109375e+02" cType="1" res="-9.9000000000000000e+01" rms="0.0000000000000000e+00" purity="8.4740281105041504e-01" nType="1"/>
            <Node pos="r" depth="3" NCoef="0" IVar="22" Cut="7.6266040802001953e+00" cType="1" res="-9.9000000000000000e+01" rms="0.0000000000000000e+00" purity="6.9319826364517212e-01" nType="0">
              <Node pos="l" depth="4" NCoef="0" IVar="-1" Cut="2.0936577320098877e+00" cType="0" res="-9.9000000000000000e+01" rms="0.0000000000000000e+00" purity="7.1648061275482178e-01" nType="1"/>
              <Node pos="r" depth="4" NCoef="0" IVar="-1" Cut="0.0000000000000000e+00" cType="1" res="-9.9000000000000000e+01" rms="0.0000000000000000e+00" purity="4.6122828125953674e-01" nType="-1"/>
            </Node>
          </Node>
          <Node pos="r" depth="2" NCoef="0" IVar="1" Cut="4.0000000000000000e+00" cType="0" res="-9.9000000000000000e+01" rms="0.0000000000000000e+00" purity="6.0319179296493530e-01" nType="0">
            <Node pos="l" depth="3" NCoef="0" IVar="-1" Cut="1.4952353239059448e+00" cType="1" res="-9.9000000000000000e+01" rms="0.0000000000000000e+00" purity="7.9634499549865723e-01" nType="1"/>
            <Node pos="r" depth="3" NCoef="0" IVar="20" Cut="3.0000000000000000e+00" cType="0" res="-9.9000000000000000e+01" rms="0.0000000000000000e+00" purity="5.7470250129699707e-01" nType="0">
              <Node pos="l" depth="4" NCoef="0" IVar="5" Cut="6.2728157043457031e+01" cType="0" res="-9.9000000000000000e+01" rms="0.0000000000000000e+00" purity="7.0260977745056152e-01" nType="0">
                <Node pos="l" depth="5" NCoef="0" IVar="-1" Cut="0.0000000000000000e+00" cType="1" res="-9.9000000000000000e+01" rms="0.0000000000000000e+00" purity="7.6970160007476807e-01" nType="1"/>
                <Node pos="r" depth="5" NCoef="0" IVar="-1" Cut="0.0000000000000000e+00" cType="1" res="-9.9000000000000000e+01" rms="0.0000000000000000e+00" purity="4.8398584127426147e-01" nType="-1"/>
              </Node>
              <Node pos="r" depth="4" NCoef="0" IVar="19" Cut="3.0000000000000000e+00" cType="1" res="-9.9000000000000000e+01" rms="0.0000000000000000e+00" purity="5.5341142416000366e-01" nType="0">
                <Node pos="l" depth="5" NCoef="0" IVar="-1" Cut="0.0000000000000000e+00" cType="1" res="-9.9000000000000000e+01" rms="0.0000000000000000e+00" purity="6.0204607248306274e-01" nType="1"/>
                <Node pos="r" depth="5" NCoef="0" IVar="-1" Cut="0.0000000000000000e+00" cType="1" res="-9.9000000000000000e+01" rms="0.0000000000000000e+00" purity="4.9903687834739685e-01" nType="-1"/>
              </Node>
            </Node>
          </Node>
        </Node>
        <Node pos="r" depth="1" NCoef="0" IVar="0" Cut="3.0000000000000000e+00" cType="0" res="-9.9000000000000000e+01" rms="0.0000000000000000e+00" purity="4.9164918065071106e-01" nType="0">
          <Node pos="l" depth="2" NCoef="0" IVar="1" Cut="2.0000000000000000e+00" cType="0" res="-9.9000000000000000e+01" rms="0.0000000000000000e+00" purity="5.0324881076812744e-01" nType="0">
            <Node pos="l" depth="3" NCoef="0" IVar="-1" Cut="2.0000000000000000e+00" cType="1" res="-9.9000000000000000e+01" rms="0.0000000000000000e+00" purity="5.3959041833877563e-01" nType="1"/>
            <Node pos="r" depth="3" NCoef="0" IVar="5" Cut="8.6954917907714844e+01" cType="0" res="-9.9000000000000000e+01" rms="0.0000000000000000e+00" purity="4.7003537416458130e-01" nType="0">
              <Node pos="l" depth="4" NCoef="0" IVar="0" Cut="8.0000000000000000e+00" cType="0" res="-9.9000000000000000e+01" rms="0.0000000000000000e+00" purity="5.0215613842010498e-01" nType="0">
                <Node pos="l" depth="5" NCoef="0" IVar="-1" Cut="0.0000000000000000e+00" cType="1" res="-9.9000000000000000e+01" rms="0.0000000000000000e+00" purity="7.4564570188522339e-01" nType="1"/>
                <Node pos="r" depth="5" NCoef="0" IVar="-1" Cut="0.0000000000000000e+00" cType="1" res="-9.9000000000000000e+01" rms="0.0000000000000000e+00" purity="4.9707731604576111e-01" nType="-1"/>
              </Node>
              <Node pos="r" depth="4" NCoef="0" IVar="-1" Cut="3.8533078002929688e+02" cType="0" res="-9.9000000000000000e+01" rms="0.0000000000000000e+00" purity="4.0801450610160828e-01" nType="-1"/>
            </Node>
          </Node>
          <Node pos="r" depth="2" NCoef="0" IVar="2" Cut="1.3411924743652344e+02" cType="0" res="-9.9000000000000000e+01" rms="0.0000000000000000e+00" purity="2.9619383811950684e-01" nType="0">
            <Node pos="l" depth="3" NCoef="0" IVar="-1" Cut="3.9696429443359375e+02" cType="1" res="-9.9000000000000000e+01" rms="0.0000000000000000e+00" purity="3.8970720767974854e-01" nType="-1"/>
            <Node pos="r" depth="3" NCoef="0" IVar="1" Cut="2.0000000000000000e+00" cType="0" res="-9.9000000000000000e+01" rms="0.0000000000000000e+00" purity="2.3979051411151886e-01" nType="0">
              <Node pos="l" depth="4" NCoef="0" IVar="9" Cut="3.3602499389648438e+02" cType="0" res="-9.9000000000000000e+01" rms="0.0000000000000000e+00" purity="3.8399112224578857e-01" nType="0">
                <Node pos="l" depth="5" NCoef="0" IVar="-1" Cut="0.0000000000000000e+00" cType="1" res="-9.9000000000000000e+01" rms="0.0000000000000000e+00" purity="5.1089918613433838e-01" nType="1"/>
                <Node pos="r" depth="5" NCoef="0" IVar="-1" Cut="0.0000000000000000e+00" cType="1" res="-9.9000000000000000e+01" rms="0.0000000000000000e+00" purity="2.7723929286003113e-01" nType="-1"/>
              </Node>
              <Node pos="r" depth="4" NCoef="0" IVar="-1" Cut="4.1230377197265625e+02" cType="0" res="-9.9000000000000000e+01" rms="0.0000000000000000e+00" purity="1.9662758708000183e-01" nType="-1"/>
            </Node>
          </Node>
        </Node>
      </Node>
    </BinaryTree>
    <BinaryTree type="DecisionTree" boostWeight="5.7740790988367312e-02" itree="14">
      <Node pos="s" depth="0" NCoef="0" IVar="1" Cut="3.0000000000000000e+00" cType="0" res="-9.9000000000000000e+01" rms="0.0000000000000000e+00" purity="5.1817065477371216e-01" nType="0">
        <Node pos="l" depth="1" NCoef="0" IVar="18" Cut="4.0000000000000000e+00" cType="0" res="-9.9000000000000000e+01" rms="0.0000000000000000e+00" purity="6.6973108053207397e-01" nType="0">
          <Node pos="l" depth="2" NCoef="0" IVar="0" Cut="6.0000000000000000e+00" cType="0" res="-9.9000000000000000e+01" rms="0.0000000000000000e+00" purity="7.9170173406600952e-01" nType="0">
            <Node pos="l" depth="3" NCoef="0" IVar="-1" Cut="5.2841644287109375e+02" cType="1" res="-9.9000000000000000e+01" rms="0.0000000000000000e+00" purity="8.3851289749145508e-01" nType="1"/>
            <Node pos="r" depth="3" NCoef="0" IVar="6" Cut="2.6087149047851562e+02" cType="0" res="-9.9000000000000000e+01" rms="0.0000000000000000e+00" purity="6.9508278369903564e-01" nType="0">
              <Node pos="l" depth="4" NCoef="0" IVar="-1" Cut="4.0717770385742188e+02" cType="1" res="-9.9000000000000000e+01" rms="0.0000000000000000e+00" purity="7.5076138973236084e-01" nType="1"/>
              <Node pos="r" depth="4" NCoef="0" IVar="6" Cut="2.2424998474121094e+02" cType="0" res="-9.9000000000000000e+01" rms="0.0000000000000000e+00" purity="5.6550526618957520e-01" nType="0">
                <Node pos="l" depth="5" NCoef="0" IVar="-1" Cut="0.0000000000000000e+00" cType="1" res="-9.9000000000000000e+01" rms="0.0000000000000000e+00" purity="7.7764326333999634e-01" nType="1"/>
                <Node pos="r" depth="5" NCoef="0" IVar="-1" Cut="0.0000000000000000e+00" cType="1" res="-9.9000000000000000e+01" rms="0.0000000000000000e+00" purity="4.2829665541648865e-01" nType="-1"/>
              </Node>
            </Node>
          </Node>
          <Node pos="r" depth="2" NCoef="0" IVar="1" Cut="4.0000000000000000e+00" cType="0" res="-9.9000000000000000e+01" rms="0.0000000000000000e+00" purity="6.0665613412857056e-01" nType="0">
            <Node pos="l" depth="3" NCoef="0" IVar="-1" Cut="3.0000000000000000e+00" cType="1" res="-9.9000000000000000e+01" rms="0.0000000000000000e+00" purity="7.9901474714279175e-01" nType="1"/>
            <Node pos="r" depth="3" NCoef="0" IVar="20" Cut="3.0000000000000000e+00" cType="0" res="-9.9000000000000000e+01" rms="0.0000000000000000e+00" purity="5.8742332458496094e-01" nType="0">
              <Node pos="l" depth="4" NCoef="0" IVar="5" Cut="6.4126342773437500e+01" cType="0" res="-9.9000000000000000e+01" rms="0.0000000000000000e+00" purity="7.2153258323669434e-01" nType="0">
                <Node pos="l" depth="5" NCoef="0" IVar="-1" Cut="0.0000000000000000e+00" cType="1" res="-9.9000000000000000e+01" rms="0.0000000000000000e+00" purity="7.7727395296096802e-01" nType="1"/>
                <Node pos="r" depth="5" NCoef="0" IVar="-1" Cut="0.0000000000000000e+00" cType="1" res="-9.9000000000000000e+01" rms="0.0000000000000000e+00" purity="4.9099606275558472e-01" nType="-1"/>
              </Node>
              <Node pos="r" depth="4" NCoef="0" IVar="-1" Cut="2.0000000000000000e+00" cType="0" res="-9.9000000000000000e+01" rms="0.0000000000000000e+00" purity="5.6434321403503418e-01" nType="1"/>
            </Node>
          </Node>
        </Node>
        <Node pos="r" depth="1" NCoef="0" IVar="0" Cut="3.0000000000000000e+00" cType="0" res="-9.9000000000000000e+01" rms="0.0000000000000000e+00" purity="4.9323374032974243e-01" nType="0">
          <Node pos="l" depth="2" NCoef="0" IVar="3" Cut="1.2030358886718750e+02" cType="0" res="-9.9000000000000000e+01" rms="0.0000000000000000e+00" purity="5.0407963991165161e-01" nType="0">
            <Node pos="l" depth="3" NCoef="0" IVar="-1" Cut="2.6967874145507812e+02" cType="0" res="-9.9000000000000000e+01" rms="0.0000000000000000e+00" purity="5.5939280986785889e-01" nType="1"/>
            <Node pos="r" depth="3" NCoef="0" IVar="0" Cut="4.0000000000000000e+00" cType="0" res="-9.9000000000000000e+01" rms="0.0000000000000000e+00" purity="4.8793974518775940e-01" nType="0">
              <Node pos="l" depth="4" NCoef="0" IVar="0" Cut="8.0000000000000000e+00" cType="0" res="-9.9000000000000000e+01" rms="0.0000000000000000e+00" purity="5.0537365674972534e-01" nType="0">
                <Node pos="l" depth="5" NCoef="0" IVar="-1" Cut="0.0000000000000000e+00" cType="1" res="-9.9000000000000000e+01" rms="0.0000000000000000e+00" purity="6.7807143926620483e-01" nType="1"/>
                <Node pos="r" depth="5" NCoef="0" IVar="-1" Cut="0.0000000000000000e+00" cType="1" res="-9.9000000000000000e+01" rms="0.0000000000000000e+00" purity="4.9996948242187500e-01" nType="-1"/>
              </Node>
              <Node pos="r" depth="4" NCoef="0" IVar="-1" Cut="7.8784667968750000e+01" cType="0" res="-9.9000000000000000e+01" rms="0.0000000000000000e+00" purity="4.2836093902587891e-01" nType="-1"/>
            </Node>
          </Node>
          <Node pos="r" depth="2" NCoef="0" IVar="2" Cut="1.3411924743652344e+02" cType="0" res="-9.9000000000000000e+01" rms="0.0000000000000000e+00" purity="3.0790668725967407e-01" nType="0">
            <Node pos="l" depth="3" NCoef="0" IVar="13" Cut="3.9696429443359375e+02" cType="1" res="-9.9000000000000000e+01" rms="0.0000000000000000e+00" purity="4.0586015582084656e-01" nType="0">
              <Node pos="l" depth="4" NCoef="0" IVar="10" Cut="2.3929517269134521e+00" cType="1" res="-9.9000000000000000e+01" rms="0.0000000000000000e+00" purity="4.3376445770263672e-01" nType="0">
                <Node pos="l" depth="5" NCoef="0" IVar="-1" Cut="0.0000000000000000e+00" cType="1" res="-9.9000000000000000e+01" rms="0.0000000000000000e+00" purity="5.1233273744583130e-01" nType="1"/>
                <Node pos="r" depth="5" NCoef="0" IVar="-1" Cut="0.0000000000000000e+00" cType="1" res="-9.9000000000000000e+01" rms="0.0000000000000000e+00" purity="3.3573782444000244e-01" nType="-1"/>
              </Node>
              <Node pos="r" depth="4" NCoef="0" IVar="-1" Cut="0.0000000000000000e+00" cType="1" res="-9.9000000000000000e+01" rms="0.0000000000000000e+00" purity="1.3855630159378052e-01" nType="-1"/>
            </Node>
            <Node pos="r" depth="3" NCoef="0" IVar="-1" Cut="1.2865560913085938e+02" cType="0" res="-9.9000000000000000e+01" rms="0.0000000000000000e+00" purity="2.4830189347267151e-01" nType="-1"/>
          </Node>
        </Node>
      </Node>
    </BinaryTree>
    <BinaryTree type="DecisionTree" boostWeight="6.1473481567909577e-02" itree="15">
      <Node pos="s" depth="0" NCoef="0" IVar="18" Cut="4.0000000000000000e+00" cType="0" res="-9.9000000000000000e+01" rms="0.0000000000000000e+00" purity="5.2401077747344971e-01" nType="0">
        <Node pos="l" depth="1" NCoef="0" IVar="1" Cut="3.0000000000000000e+00" cType="0" res="-9.9000000000000000e+01" rms="0.0000000000000000e+00" purity="7.0314007997512817e-01" nType="0">
          <Node pos="l" depth="2" NCoef="0" IVar="-1" Cut="6.0000000000000000e+00" cType="0" res="-9.9000000000000000e+01" rms="0.0000000000000000e+00" purity="7.8408801555633545e-01" nType="1"/>
          <Node pos="r" depth="2" NCoef="0" IVar="0" Cut="6.0000000000000000e+00" cType="0" res="-9.9000000000000000e+01" rms="0.0000000000000000e+00" purity="6.1160111427307129e-01" nType="0">
